tree
version=v4
num_class=1
num_tree_per_iteration=1
label_index=0
max_feature_idx=3
objective=binary sigmoid:1
feature_names=physical_score consensus_score temporal_score reputation_score
feature_infos=[0.0044631196294546999:0.99752263202312963] [0.0060459882571663997:0.99760024919409918] [0.0089241370136849008:0.98439871047752603] [0.0019896202636487002:0.99807757633407035]
tree_sizes=1559 1716 1604 1923 1831 1715 1918 1821 1926 1823 1826 1827 1829 1829 1824 1828 1833 1830 1831 1723 1720 1827 1824 1612 1722 1830 1726 1829 1824 1826 1723 1618 2044 1818 2045 1937 1715 1829 1718 1830 1717 1836 1833 1724 1836 1727 1833 1832 1722 1836

Tree=0
num_leaves=14
num_cat=0
split_feature=0 1 1 3 1 0 1 1 3 0 3 0 0
split_gain=7282.81 313.129 220.036 47.7637 15.2174 4.01102 3.58073 2.54292 0.840086 1.02273 0.0824457 9.09495e-13 3.55271e-15
threshold=0.47715406841047142 0.30947005913470743 0.70389042992158235 0.30862899919346437 0.59981308949750323 0.58721798799302671 0.77142285881019335 0.38388370178406922 0.54748319703077108 0.21008191669126083 0.4209177566907723 0.42463066971832369 0.43849741619816368
decision_type=2 2 2 2 2 2 2 2 2 2 2 2 2
left_child=2 5 4 -3 8 -2 -4 -5 11 -10 -9 -1 -8
right_child=1 3 6 7 -6 -7 12 10 9 -11 -12 -13 -14
leaf_value=0.28046510034714256 0.28046510034714262 0.34713177049074695 0.43671510849621531 0.45674716082301947 0.35762559819853651 0.33254843639683351 0.48879844454590621 0.48463177766193094 0.28046510034714256 0.31171510197695718 0.48879844454590621 0.28046510034714256 0.48879844454590621
leaf_weight=707.27998419106007 16.079999640583996 5.9999998658895484 4.7999998927116385 6.2399998605251303 6.4799998551607123 4.7999998927116385 4.7999998927116376 11.999999731779097 5.7599998712539655 4.7999998927116394 1114.5599750876427 20.639999538660049 5.7599998712539673
leaf_count=2947 67 25 20 26 27 20 20 50 24 20 4644 86 24
internal_value=0.405465 0.484314 0.2852 0.487833 0.281338 0.292438 0.472522 0.488578 0.280668 0.29467 0.488754 0.280465 0.488798
internal_weight=1920 1159.68 760.32 1138.8 744.96 20.88 15.36 1132.8 738.48 10.56 1126.56 727.92 10.56
internal_count=8000 4832 3168 4745 3104 87 64 4720 3077 44 4694 3033 44
is_linear=0
shrinkage=1


Tree=1
num_leaves=15
num_cat=0
split_feature=0 1 3 3 1 1 1 3 2 2 3 0 1 0
split_gain=6536.32 285.91 194.89 44.1422 20.7414 3.82168 2.41454 0.312951 0.445211 0.141624 0.0788949 0.00499679 0.000116453 7.10543e-15
threshold=0.47715406841047142 0.30947005913470743 0.69350233955179952 0.30862899919346437 0.61970697811096687 0.22122458480620641 0.38388370178406922 0.54748319703077108 0.34699780035793576 0.6348541406877849 0.4209177566907723 0.54955854450930908 0.54709255368782572 0.49902861953956218
decision_type=2 2 2 2 2 2 2 2 2 2 2 2 2 2
left_child=2 5 4 -3 7 11 -5 12 -9 -4 -8 13 -1 -2
right_child=1 3 9 6 -6 -7 10 8 -10 -11 -12 -13 -14 -15
leaf_value=-0.11618726653819665 -0.1161872665381965 -0.054802714690899895 0.071036781759461015 0.049264947314396602 -0.038140037828578423 -0.066444868633533008 0.076556699690607855 -0.11733087814940242 -0.096491774620772977 0.081812763684421586 0.080668145047974885 -0.11802650212394494 -0.11641542315713525 -0.11618726653819662
leaf_weight=738.13897724449635 4.9029490351676994 6.0654357075691214 4.740110144019126 6.1724436581134787 8.6362072229385358 4.8874786496162406 11.793840676546095 5.3797638714313489 4.8950856626033783 8.5466168075799924 1094.3231828212738 5.6151858121156684 5.635417789220809 5.8835388422012329
leaf_count=3011 20 25 20 26 36 20 50 22 20 36 4644 23 23 24
internal_value=4.98388e-05 0.0762614 -0.11188 0.0797167 -0.115187 -0.105253 0.0804503 -0.116069 -0.107403 0.0779684 0.0806243 -0.116817 -0.116189 -0.116187
internal_weight=1915.62 1139.64 775.972 1118.35 762.685 21.2892 1112.29 754.049 10.2748 13.2867 1106.12 16.4017 743.774 10.7865
internal_count=8000 4832 3168 4745 3112 87 4720 3076 42 56 4694 67 3034 44
is_linear=0
shrinkage=0.05


Tree=2
num_leaves=14
num_cat=0
split_feature=0 1 3 3 1 3 1 1 2 2 3 1 3
split_gain=5904.71 262.135 172.722 40.9236 18.4325 3.68372 2.31472 2.27354 0.142357 0.135244 0.0764893 0.00547666 0.000225427
threshold=0.47715406841047142 0.30947005913470743 0.69350233955179952 0.30862899919346437 0.68567833772294851 0.31668976806593646 0.38388370178406922 0.5541073815536367 0.72032820675578735 0.6348541406877849 0.4209177566907723 0.16126288131429742 0.13591942932328357
decision_type=2 2 2 2 2 2 2 2 2 2 2 2 2
left_child=2 5 4 -3 7 11 -5 8 -1 -4 -8 12 -2
right_child=1 3 9 6 -6 -7 10 -9 -10 -11 -12 -13 -14
leaf_value=-0.10894360789970631 -0.10952121122797467 -0.051600120556532791 0.068690315463261528 0.047363537118623851 -0.010313145962339511 -0.060844502288622405 0.074203244212846062 -0.081433631928078121 -0.1016246849046995 0.079316871084323046 0.078291358758705187 -0.11114379128931347 -0.10905038750905227
leaf_weight=753.38669799268246 4.9617909789085441 6.1183534562587729 4.6589865088462821 6.101054221391677 4.799330234527587 4.9460061341524115 11.565279960632322 7.6213977336883536 6.7030451893806449 8.3790008276700956 1071.7373628616333 6.4332114458084098 5.2137118279933929
leaf_count=3034 20 25 20 26 20 20 50 31 27 36 4644 26 21
internal_value=8.82555e-05 0.0739531 -0.10495 0.0773505 -0.107996 -0.0987221 0.0780748 -0.108607 -0.108879 0.0755196 0.0782477 -0.110002 -0.10928
internal_weight=1902.63 1117.08 785.548 1095.52 772.51 21.5547 1089.4 767.711 760.09 13.038 1083.3 16.6087 10.1755
internal_count=8000 4832 3168 4745 3112 87 4720 3092 3061 56 4694 67 41
is_linear=0
shrinkage=0.05


Tree=3
num_leaves=17
num_cat=0
split_feature=0 1 1 3 2 1 2 3 1 3 0 1 1 3 3 1
split_gain=5363.01 241.884 154.51 31.9917 17.2618 9.53416 3.35742 0.558225 0.938501 0.314466 0.530522 0.029203 0.00638259 0.00375834 0.00286837 0.00159506
threshold=0.47715406841047142 0.34112560372696404 0.70389042992158235 0.30862899919346437 0.48499782894599275 0.59981308949750323 0.59533382158331138 0.54748319703077108 0.24548417436352785 0.4209177566907723 0.75898892569476062 0.20851934642551659 0.40709346762779092 0.83316557625942556 0.25117364693411165 0.54709255368782572
decision_type=2 2 2 2 2 2 2 2 2 2 2 2 2 2 2 2
left_child=2 4 5 -3 11 7 -4 15 -9 10 -5 14 -11 -8 -2 -1
right_child=1 3 6 9 -6 -7 13 8 -10 12 -12 -13 -14 -15 -16 -17
leaf_value=-0.10284790854897914 -0.10320843474750706 -0.043030876427698629 0.026275483292053106 0.054541145191281816 -0.0012511275577308265 -0.042218724755328695 0.078658474388061353 -0.10483701930555785 -0.075449041263997402 0.077941752233095352 0.076486394152569526 -0.10816399219922823 0.076160876066502431 0.076718642521404423 -0.10468934413690495 -0.1037030597070424
leaf_weight=752.1727342903614 9.4900628775358253 5.667494371533393 4.6619471758604041 4.5328826457262021 5.0690428018569937 6.5734447985887519 4.6111632138490659 5.9806654602289182 4.9777591377496719 5.0554985702037802 7.017560750246048 4.9602815210819236 1045.6721176356077 5.4458560049533844 4.988581731915473 5.492753490805625
leaf_count=3011 38 23 20 20 21 27 20 24 20 22 31 20 4637 24 20 22
internal_value=0.000118348 0.071883 -0.0991321 0.0754471 -0.0834248 -0.102179 0.0613495 -0.102692 -0.0914878 0.0760792 0.0678742 -0.104853 0.0761694 0.0776081 -0.103719 -0.102854
internal_weight=1882.37 1092.45 789.916 1067.95 24.508 775.197 14.719 768.624 10.9584 1062.28 11.5504 19.4389 1050.73 10.057 14.4786 757.665
internal_count=8000 4832 3168 4733 99 3104 64 3077 44 4710 51 78 4659 44 58 3033
is_linear=0
shrinkage=0.05


Tree=4
num_leaves=16
num_cat=0
split_feature=0 1 3 3 2 1 3 2 3 2 2 1 1 1 0
split_gain=4893.03 223.539 141.173 29.8754 15.5218 14.1527 0.308396 0.542171 0.252667 0.373891 0.118679 0.0215052 0.00506968 0.00261099 0.00220103
threshold=0.47715406841047142 0.34112560372696404 0.69350233955179952 0.30862899919346437 0.48499782894599275 0.61970697811096687 0.4209177566907723 0.63946591776278294 0.54748319703077108 0.34699780035793576 0.6348541406877849 0.20851934642551659 0.40709346762779092 0.54709255368782572 0.53894718474798209
decision_type=2 2 2 2 2 2 2 2 2 2 2 2 2 2 2
left_child=2 4 5 -3 11 8 7 -5 13 -10 -4 14 -8 -1 -2
right_child=1 3 10 6 -6 -7 12 -9 9 -11 -12 -13 -14 -15 -16
leaf_value=-0.097682776288158163 -0.097980823405966089 -0.040682557529289558 0.065613839968332338 0.052319350528749392 -0.001188339346792707 -0.033581081606545889 0.075848340277209492 0.074747773672518156 -0.098877589863198848 -0.079983992521218905 0.0757394597775288 -0.10223509155136633 0.074242422702406691 -0.098752539422807359 -0.099277139219238586
leaf_weight=752.32633219659328 9.4952175021171623 5.6941801011562339 4.520348221063613 4.4353361874818784 5.0700014382600775 8.7354313284158689 4.9382436275482169 6.8651351630687714 5.498712480068205 4.9991262853145599 8.0423407405614835 4.9847709387540808 1019.7151189595461 5.7474490106105796 4.9981235116720191
leaf_count=3011 38 23 20 20 21 36 22 31 22 20 36 20 4637 23 20
internal_value=0.000142218 0.0700172 -0.0941776 0.0735318 -0.0791178 -0.0968649 0.0741596 0.0659448 -0.0975842 -0.0898804 0.072096 -0.0994022 0.0742502 -0.0976909 -0.0984279
internal_weight=1856.07 1066.2 789.87 1041.65 24.5481 777.307 1035.95 11.3005 768.572 10.4978 12.5627 19.4781 1024.65 758.074 14.4933
internal_count=8000 4832 3168 4733 99 3112 4710 51 3076 42 56 78 4659 3034 58
is_linear=0
shrinkage=0.05


Tree=5
num_leaves=15
num_cat=0
split_feature=0 3 3 1 1 1 1 1 2 3 3 1 2 1
split_gain=4481.56 208.199 127.76 25.2151 19.6587 13.2691 1.68038 0.150076 0.125861 0.11909 0.0782367 0.124741 0.0106328 0.00405141
threshold=0.47715406841047142 0.32874674801078524 0.69350233955179952 0.34112560372696404 0.48189498605570386 0.68567833772294851 0.5541073815536367 0.23376891685667686 0.72032820675578735 0.80563743555792267 0.4209177566907723 0.79994390150796324 0.33970395641561563 0.40709346762779092
decision_type=2 2 2 2 2 2 2 2 2 2 2 2 2 2
left_child=2 4 5 -3 7 6 8 12 -1 -4 11 -5 -2 -12
right_child=1 3 9 10 -6 -7 -8 -9 -10 -11 13 -13 -14 -15
leaf_value=-0.0932645475665278 -0.093489924492672377 -0.024054025637873597 0.063623245760439109 0.061689123034537753 0.015597504468966475 -0.0096262857638443004 -0.069746698494750264 -0.1043347904161261 -0.086391358788009534 0.073889774000632014 0.073961798249739197 0.073079151653931015 -0.096331805330957088 0.07250779815386553
leaf_weight=754.53775851428509 9.7017847150564247 6.8115427941083899 4.4112286567687971 4.3315069079399091 4.8106954246759406 4.8056886345148078 7.7120969146490088 5.2054390162229529 6.7199473977088919 7.853735014796257 4.8141355216503134 5.4013524800539017 4.981287255883216 992.59176824986935
leaf_count=3034 39 28 20 20 20 20 31 21 27 36 22 25 20 4637
internal_value=0.000161392 0.068329 -0.0899131 0.0718228 -0.0751016 -0.092451 -0.0929686 -0.0970401 -0.0932039 0.0701973 0.0724713 0.0680101 -0.094454 0.0725148
internal_weight=1824.69 1038.65 786.04 1013.95 24.6992 773.775 768.97 19.8885 761.258 12.265 1007.14 9.73286 14.6831 997.406
internal_count=8000 4832 3168 4732 100 3112 3092 80 3061 56 4704 45 59 4659
is_linear=0
shrinkage=0.05


Tree=6
num_leaves=17
num_cat=0
split_feature=0 3 1 3 1 3 1 3 3 1 2 1 3 0 1 1
split_gain=4121.05 201.849 108.027 24.1072 21.2212 4.54753 1.66844 4.364 1.10062 2.13957 0.12065 0.1196 0.08883 0.00558176 0.00707608 1.86416e-05
threshold=0.51391134020372176 0.63351089225935453 0.26837751382573199 0.30454978134024846 0.69320443304724133 0.71929094673479621 0.54709255368782572 0.27122804142107232 0.4209177566907723 0.77142285881019335 0.72032820675578735 0.36997890380634796 0.17634814595248829 0.4661406393428873 0.80701835684397583 0.78455623732951951
decision_type=2 2 2 2 2 2 2 2 2 2 2 2 2 2 2 2
left_child=1 4 12 -4 6 -3 10 -8 9 -5 -1 -10 -2 14 -7 -15
right_child=2 5 3 8 -6 13 7 -9 11 -11 -12 -13 -14 15 -16 -17
leaf_value=-0.089462709106921889 -0.092190070979549302 0.015715672110444997 -0.036937703952681242 0.027665467200503925 0.01760182249216434 0.074104792075403977 -0.097624356347639329 -0.034294303968134807 0.07906405441943587 0.072390767562370201 -0.082708126110492011 0.070935624599836947 -0.083125663050742246 0.07106955845764136 0.071331011115941326 0.070928875742916175
leaf_weight=755.01963582634926 5.9410412609577161 4.4691170305013683 5.220908820629119 4.3285978287458402 4.6859492659568778 4.5878616273403185 6.1983012259006482 4.8477279394865036 4.546911120414733 6.9954401105642319 6.669458180665969 956.52013036608696 4.9588359296321869 4.1706967800855619 4.6092339158058167 5.408066987991333
leaf_count=3063 24 20 21 20 20 21 25 20 20 33 27 4598 20 20 22 26
internal_value=0.000176981 -0.0841394 0.0684709 0.0702162 -0.0884805 0.0610453 -0.0891238 -0.0698309 0.0707915 0.0552946 -0.0894036 0.0709741 -0.0880663 0.0718349 0.0727147 0.0709901
internal_weight=1789.18 800.666 988.512 977.612 777.421 23.245 772.735 11.046 972.391 11.324 761.689 961.067 10.8999 18.7759 9.1971 9.57876
internal_count=8000 3264 4736 4692 3155 109 3135 45 4671 53 3090 4618 44 89 43 46
is_linear=0
shrinkage=0.05


Tree=7
num_leaves=16
num_cat=0
split_feature=0 3 1 3 1 0 1 3 3 2 3 1 3 1 2
split_gain=3799.46 184.264 100.292 22.6613 19.5074 4.50586 1.65069 4.00014 1.09655 2.1665 0.120605 0.0971415 0.0843937 0.00666028 0.000895607
threshold=0.51391134020372176 0.63351089225935453 0.26837751382573199 0.30454978134024846 0.69320443304724133 0.39898129219648421 0.54709255368782572 0.27122804142107232 0.4209177566907723 0.63229278342086992 0.57039430620983478 0.36997890380634796 0.17634814595248829 0.70801103567936463 0.62387874528051701
decision_type=2 2 2 2 2 2 2 2 2 2 2 2 2 2 2
left_child=1 4 12 -4 6 -3 10 -8 9 -5 -1 -10 -2 -7 -15
right_child=2 5 3 8 -6 13 7 -9 11 -11 -12 -13 -14 14 -16
leaf_value=-0.086084351086898409 -0.088491417057554839 0.014385952332810148 -0.035057631507745921 0.025659857666495495 0.01679275113576989 0.072179462337134501 -0.09325740445345046 -0.032561808919385649 0.076912894541810647 0.071137130064120466 -0.078891431935864384 0.069501995526776938 -0.079616674687647521 0.070538813582212992 0.069671468088575217
leaf_weight=746.35574333369732 5.8813400864601117 4.4547839164733913 5.225709304213523 4.2450523525476438 4.6666352748870841 4.380058333277705 6.1648712158203107 4.8502958416938782 4.4430062770843497 6.8362416326999664 5.8735415935516349 928.15694691240788 4.9194756299257278 4.329675465822219 9.5214273780584318
leaf_count=3066 24 20 21 20 20 21 25 20 20 33 24 4598 20 21 47
internal_value=0.000189686 -0.0809747 0.0670521 0.0687765 -0.0851237 0.0594649 -0.0857468 -0.0665314 0.0693515 0.0537156 -0.0860282 0.0695373 -0.0844492 0.07048 0.0699426
internal_weight=1750.3 790.597 959.708 948.907 767.911 22.6859 763.244 11.0152 943.681 11.0813 752.229 932.6 10.8008 18.2312 13.8511
internal_count=8000 3264 4736 4692 3155 109 3135 45 4671 53 3090 4618 44 89 68
is_linear=0
shrinkage=0.05


Tree=8
num_leaves=17
num_cat=0
split_feature=0 3 1 3 1 3 1 3 3 1 2 3 1 0 1 0
split_gain=3511.76 168.832 93.2856 21.3466 18.0314 4.44152 1.64235 3.70379 1.09786 2.10791 0.120258 0.0813951 0.079281 0.00585908 0.00621033 1.30891e-05
threshold=0.51391134020372176 0.63351089225935453 0.26837751382573199 0.30454978134024846 0.69320443304724133 0.71929094673479621 0.54709255368782572 0.27122804142107232 0.4209177566907723 0.77142285881019335 0.72032820675578735 0.17634814595248829 0.36997890380634796 0.4661406393428873 0.80370539070238378 0.48744498923471474
decision_type=2 2 2 2 2 2 2 2 2 2 2 2 2 2 2 2
left_child=1 4 11 -4 6 -3 10 -8 9 -5 -1 -2 -10 14 -7 -15
right_child=2 5 3 8 -6 13 7 -9 12 -11 -12 -13 -14 15 -16 -17
leaf_value=-0.083112702290111876 -0.08524645471500103 0.012893089061906525 -0.033296124626749336 0.0244779686169318 0.016019936448947621 0.071433298081771804 -0.089460028710223558 -0.03093357062173914 0.074972276243970376 0.069746880399346789 -0.076283208912752198 -0.076478019358890162 0.068192600946925114 0.068288091390957151 0.068764284586695687 0.068167078881947826
leaf_weight=734.00965063273907 5.8019259274005872 4.3798132836818722 5.2270146012306204 4.1968345791101438 4.6476643830537787 4.1750992834568041 6.1066361963748914 4.8503085374832153 4.332898497581481 6.6401673555374146 6.502887710928916 4.8666149228811264 899.40882895886898 4.1170249432325345 4.5597594678401947 4.8870345801115036
leaf_count=3063 24 20 21 20 20 20 25 20 20 33 27 20 4598 21 23 25
internal_value=0.000200141 -0.078178 0.0657545 0.0674596 -0.0821612 0.0579842 -0.0827684 -0.0635521 0.0680354 0.0522156 -0.0830527 -0.0812466 0.0682251 0.0691174 0.07004 0.0682224
internal_weight=1708.71 778.236 930.474 919.806 756.117 22.1187 751.469 10.9569 914.579 10.837 740.513 10.6685 903.742 17.7389 8.73486 9.00406
internal_count=8000 3264 4736 4692 3155 109 3135 45 4671 53 3090 44 4618 89 43 46
is_linear=0
shrinkage=0.05


Tree=9
num_leaves=16
num_cat=0
split_feature=0 3 3 1 1 3 0 1 0 3 2 3 1 1 2
split_gain=3253.07 155.192 87.0299 16.749 11.7144 4.97117 4.41851 1.64174 3.70088 0.258091 0.563801 0.124503 0.00634573 0.00237622 0.000766158
threshold=0.51391134020372176 0.63351089225935453 0.30454978134024846 0.69320443304724133 0.33268586881738815 0.19306777513955997 0.39898129219648421 0.54709255368782572 0.22850593507029818 0.4209177566907723 0.65672075182273149 0.57039430620983478 0.70801103567936463 0.40709346762779092 0.62387874528051701
decision_type=2 2 2 2 2 2 2 2 2 2 2 2 2 2 2
left_child=1 3 5 7 -4 -2 -3 11 -9 10 -6 -1 -8 -11 -14
right_child=2 6 4 -5 9 -7 12 8 -10 13 -12 -13 14 -15 -16
leaf_value=-0.080470888628929704 -0.08567858270679074 0.01166124332519753 -0.0085685175035922264 0.015281639531070701 0.044410071367330939 -0.022302298175826466 0.06970240980275845 -0.086907804651679799 -0.028204537810207167 0.068145909736477703 0.068724219295247135 -0.073053213625905583 0.068025668961599048 0.066991682065875344 0.067199131896855294
leaf_weight=721.22293831408024 8.4106421619653684 4.3638951331377056 5.1711681783199301 4.6290798336267462 4.0072698295116407 4.8949889242649069 4.154057830572131 6.0464701205492002 4.829186275601387 4.4820857942104331 5.8866214156150818 5.701717644929885 4.0835384577512732 868.15768444538116 8.9458001554012281
leaf_count=3066 35 20 22 20 20 20 21 25 20 23 30 24 21 4586 47
internal_value=0.000208799 -0.0756902 0.0645644 -0.0795294 0.0664669 -0.0623632 0.0565905 -0.0801242 -0.0608414 0.0669066 0.0588764 -0.0804127 0.0680007 0.0669976 0.0674582
internal_weight=1664.99 763.977 901.01 742.429 887.705 13.3056 21.5473 737.8 10.8757 882.534 9.89389 726.925 17.1834 872.64 13.0293
internal_count=8000 3264 4736 3155 4681 55 109 3135 45 4659 50 3090 89 4609 68
is_linear=0
shrinkage=0.05


Tree=10
num_leaves=16
num_cat=0
split_feature=0 3 1 3 1 0 1 3 3 0 3 1 1 1 2
split_gain=3019.27 143.06 82.3613 17.7737 15.6263 4.93429 1.65025 3.54301 0.722464 1.20726 0.123675 0.0826195 0.0786743 0.00755591 0.000850377
threshold=0.51391134020372176 0.63351089225935453 0.26837751382573199 0.32339509302136654 0.69320443304724133 0.38887365577661875 0.54709255368782572 0.27122804142107232 0.4209177566907723 0.78981508349348928 0.57039430620983478 0.16126288131429742 0.36997890380634796 0.70389042992158235 0.62387874528051701
decision_type=2 2 2 2 2 2 2 2 2 2 2 2 2 2 2
left_child=1 4 11 -4 6 -3 10 -8 9 -5 -1 -2 -10 -7 -15
right_child=2 5 3 8 -6 13 7 -9 12 -11 -12 -13 -14 14 -16
leaf_value=-0.078115610254812728 -0.080871394814366393 0.0048062424936017988 -0.017523895853776644 0.030829690337917222 0.014576242610424381 0.068869318233576185 -0.084148523261648331 -0.026494778929714115 0.072789714680500814 0.067630652437237149 -0.070657563716236313 -0.071937775047428321 0.065892191910187636 0.066948537066596592 0.06608375378268766
leaf_weight=706.19924201071262 5.4083335697650892 3.9347470104694393 6.4520845115184775 3.920176759362219 4.6109164506196967 3.8702957928180721 5.9537528157234174 4.8237514644861221 4.1545656174421302 5.1644294261932373 5.6027863621711722 4.9628766477108002 841.49715834856033 4.151270017027854 9.0184828490018827
leaf_count=3066 23 18 27 20 20 20 25 20 20 27 24 21 4598 22 49
internal_value=0.000216003 -0.0734641 0.0634646 0.0651513 -0.0771774 0.0552736 -0.0777629 -0.0583441 0.0657754 0.0517504 -0.0780569 -0.0765964 0.0659261 0.0669271 0.0663563
internal_weight=1619.72 748.165 871.56 861.188 727.19 20.9748 722.58 10.7775 854.736 9.08461 711.802 10.3712 845.652 17.04 13.1698
internal_count=8000 3264 4736 4692 3155 109 3135 45 4665 47 3090 44 4618 91 71
is_linear=0
shrinkage=0.05


Tree=11
num_leaves=16
num_cat=0
split_feature=0 3 1 3 1 0 1 0 3 0 2 1 1 1 2
split_gain=2807.28 132.207 76.9387 16.9755 14.6369 4.7636 1.66439 3.55748 0.733595 1.17835 0.128777 0.0808734 0.0650062 0.00634351 0.000697783
threshold=0.51391134020372176 0.63351089225935453 0.26837751382573199 0.32339509302136654 0.69320443304724133 0.38887365577661875 0.54709255368782572 0.22850593507029818 0.4209177566907723 0.78981508349348928 0.72032820675578735 0.16126288131429742 0.36997890380634796 0.70389042992158235 0.62387874528051701
decision_type=2 2 2 2 2 2 2 2 2 2 2 2 2 2 2
left_child=1 4 11 -4 6 -3 10 -8 9 -5 -1 -2 -10 -7 -15
right_child=2 5 3 8 -6 13 7 -9 12 -11 -12 -13 -14 14 -16
leaf_value=-0.076008189873683851 -0.078483685611055634 0.0045720917791990468 -0.016636242320562541 0.029716320732498178 0.01390223666766288 0.067647755444158533 -0.082128880896581796 -0.024071725194841083 0.071240346960909237 0.066484936856935517 -0.068733641312447524 -0.069560831477091203 0.064878778522338962 0.06585244689162105 0.065055589772474123
leaf_weight=689.30147907137871 5.2970351129770261 3.9295799285173443 6.4564107060432425 3.8651247322559339 4.5932022780179969 3.7463189661502865 5.8716953545808774 4.7919577658176422 4.0356890857219687 4.9950497150421143 6.1378626227378836 4.8779885619878769 812.64085404574871 4.0128570497035971 8.710764214396475
leaf_count=3063 23 18 27 20 20 20 25 20 20 27 27 21 4598 22 49
internal_value=0.000222032 -0.0714624 0.0624521 0.0641234 -0.0750647 0.0540374 -0.0756434 -0.0560396 0.064755 0.0504452 -0.075944 -0.074206 0.0649102 0.0658394 0.0653069
internal_weight=1573.26 731.096 842.168 831.993 710.696 20.3995 706.103 10.6637 825.537 8.86017 695.439 10.175 816.677 16.4699 12.7236
internal_count=8000 3264 4736 4692 3155 109 3135 45 4665 47 3090 44 4618 91 71
is_linear=0
shrinkage=0.05


Tree=12
num_leaves=16
num_cat=0
split_feature=0 3 3 1 1 3 0 1 3 1 0 3 3 1 2
split_gain=2614.32 122.452 72.2194 13.7596 10.3494 4.62809 4.6069 1.6848 3.43217 0.270622 0.772415 0.13155 0.0195197 0.00534049 0.000574388
threshold=0.51391134020372176 0.63351089225935453 0.30454978134024846 0.69320443304724133 0.33268586881738815 0.19306777513955997 0.38887365577661875 0.54709255368782572 0.27122804142107232 0.46742144556409676 0.73396278736926079 0.57039430620983478 0.4209177566907723 0.70389042992158235 0.62387874528051701
decision_type=2 2 2 2 2 2 2 2 2 2 2 2 2 2 2
left_child=1 3 5 7 -4 -2 -3 11 -9 10 -6 -1 -11 -8 -15
right_child=2 6 4 -5 9 -7 13 8 -10 12 -12 -13 -14 14 -16
leaf_value=-0.074102440946801518 -0.079544930196317393 0.0043491011102618207 -0.0083474528057299584 0.013258198138580233 0.036666997153011339 -0.017478764962675444 0.066524558251920787 -0.079894870089735365 -0.022579345928388467 0.066312393585160043 0.064257757433556051 -0.066245136392745305 0.063942769034252694 0.06484343948132068 0.064107633474320219
leaf_weight=672.72446568310261 8.0044932216405851 3.9246375113725689 4.9946523755788794 4.5759591907262793 3.5117994844913474 4.8074229806661597 3.622239261865615 5.7575567662715894 4.7807692736387253 8.7894263565540296 9.1354509741067869 5.3695426732301703 773.7500091791153 3.8750286102294913 8.4053326249122602
leaf_count=3066 35 18 22 20 20 20 20 25 20 48 53 24 4538 22 49
internal_value=0.000227102 -0.0696534 0.0615158 -0.0731577 0.0634015 -0.0562558 0.0528643 -0.0737319 -0.0538934 0.0638521 0.0565965 -0.0740402 0.0639694 0.0648374 0.0643398
internal_weight=1526.03 713.036 812.993 693.208 800.181 12.8119 19.8272 688.632 10.5383 795.187 12.6473 678.094 782.539 15.9026 12.2804
internal_count=8000 3264 4736 3155 4681 55 109 3135 45 4659 73 3090 4586 91 71
is_linear=0
shrinkage=0.05


Tree=13
num_leaves=16
num_cat=0
split_feature=0 1 1 3 3 3 0 3 0 0 3 1 1 0 1
split_gain=2438.04 113.921 68.4332 42.5456 15.338 1.89488 4.6932 0.778835 1.18416 0.459138 0.359094 0.0861902 0.0655291 0.0252467 0.0182539
threshold=0.51391134020372176 0.59981308949750323 0.26837751382573199 0.38074566777234875 0.32339509302136654 0.54748319703077108 0.22850593507029818 0.4209177566907723 0.78981508349348928 0.39898129219648421 0.67426099299274422 0.16126288131429742 0.36997890380634796 0.48744498923471474 0.54709255368782572
decision_type=2 2 2 2 2 2 2 2 2 2 2 2 2 2 2
left_child=1 5 11 -3 -4 13 -7 8 -6 -5 -11 -2 -9 14 -1
right_child=2 3 4 9 7 6 -8 12 -10 10 -12 -13 -14 -15 -16
leaf_value=-0.072344396855730631 -0.075212548644205526 -0.097036550157351645 -0.014749114907836253 0.048353920950537393 0.026663054561460703 -0.077187094829706496 -0.010229338645452364 0.069609911799730653 0.064539655299668736 0.079947240613196427 0.063464840881640991 -0.065823284704647059 0.063081475927739675 -0.075473998095910724 -0.075417441480706074
leaf_weight=645.08849021792412 5.0921441465616208 5.0538630038499859 6.4048539102077475 3.7805752754211452 3.7023961693048459 6.8330805301666242 4.2414845824241638 3.8634031414985648 4.6616683900356293 4.3919028192758587 13.346697643399237 4.7002896666526794 755.7688305824995 6.6065082252025595 4.8688088208436957
leaf_count=3022 23 21 27 18 20 31 20 20 27 20 80 21 4598 30 22
internal_value=0.000231382 -0.0680118 0.0606441 0.0335138 0.062305 -0.0720527 -0.0515427 0.0629476 0.0477734 0.064174 0.0675457 -0.0707058 0.0631147 -0.0723987 -0.0723674
internal_weight=1478.4 694.211 784.194 26.573 774.401 667.638 11.0746 767.996 8.36406 21.5192 17.7386 9.79243 759.632 656.564 649.957
internal_count=8000 3264 4736 139 4692 3125 51 4665 47 118 100 44 4618 3074 3044
is_linear=0
shrinkage=0.05


Tree=14
num_leaves=16
num_cat=0
split_feature=0 1 3 3 1 3 0 1 2 1 3 3 0 1 1
split_gain=2276.78 106.032 64.5879 39.2961 34.1582 1.9 4.45329 1.74818 0.473512 0.414867 0.19125 0.109791 0.0206971 0.0148006 0.000392741
threshold=0.51391134020372176 0.59981308949750323 0.37209102215497808 0.38074566777234875 0.61970697811096687 0.54748319703077108 0.22850593507029818 0.34690999150147467 0.55017088898018118 0.23376891685667686 0.70291081162428037 0.4209177566907723 0.48744498923471474 0.54709255368782572 0.41811729709767825
decision_type=2 2 2 2 2 2 2 2 2 2 2 2 2 2 2
left_child=1 5 4 -3 9 12 -7 -4 -5 -2 -10 -9 13 -1 -13
right_child=2 3 7 8 -6 6 -8 11 10 -11 -12 14 -14 -15 -16
leaf_value=-0.0707850050481411 -0.073152402631478847 -0.092994864912928965 0.029895709388809633 0.047021329905163153 0.079459846929651134 -0.075279787923691791 -0.0097227813686326606 0.055283573635251541 0.075778252690778466 -0.092029102854567307 0.063477485355330307 0.062794873683057237 -0.073656012568550991 -0.073588488570140928 0.062280369483621784
leaf_weight=626.79838064312935 7.5212492346763629 5.0108664929866817 4.204348921775817 3.8183909803628948 4.587800756096839 6.6602717190980893 4.2393969893455505 5.6459075510501853 4.1899909973144558 4.7482587993144989 12.853752240538595 3.7281621098518363 6.4354259967803946 4.7435002774000159 725.32670520246029
leaf_count=3022 35 21 20 20 23 31 20 33 20 20 78 23 30 22 4582
internal_value=0.000235094 -0.0665233 0.0598375 0.0327366 -0.0369353 -0.0704812 -0.0497816 0.0620452 0.062936 -0.0804576 0.0665015 0.0622292 -0.0708348 -0.0708061 0.062283
internal_weight=1430.51 674.75 755.762 25.873 16.8573 648.877 10.8997 738.905 20.8621 12.2695 17.0437 734.701 637.977 631.542 729.055
internal_count=8000 3264 4736 139 78 3125 51 4658 118 55 98 4638 3074 3044 4605
is_linear=0
shrinkage=0.05


Tree=15
num_leaves=16
num_cat=0
split_feature=0 1 3 3 1 3 2 1 0 1 3 3 0 1 1
split_gain=2128.83 98.8413 60.8593 36.3776 31.5965 1.90913 4.43965 1.79592 0.508588 0.33385 0.255842 0.115699 0.0170463 0.0120576 0.000325844
threshold=0.51391134020372176 0.59981308949750323 0.37209102215497808 0.38074566777234875 0.61970697811096687 0.54748319703077108 0.4907839706670914 0.34690999150147467 0.39898129219648421 0.23376891685667686 0.67426099299274422 0.4209177566907723 0.48744498923471474 0.54709255368782572 0.41811729709767825
decision_type=2 2 2 2 2 2 2 2 2 2 2 2 2 2 2
left_child=1 5 4 -3 9 12 -7 -4 -5 -2 -10 -9 13 -1 -13
right_child=2 3 7 8 -6 6 -8 11 10 -11 -12 14 -14 -15 -16
leaf_value=-0.069364613142944925 -0.071529146315016126 -0.089448844450539466 0.028598799162766489 0.04481604488473475 0.077551144368740957 -0.073635541109285232 -0.00753050153168058 0.054241950054196846 0.076159061369590247 -0.088624682608997196 0.061876667150166535 0.062016467434145198 -0.072006747069064278 -0.071930431602694508 0.061538873894639849
leaf_weight=608.12516793608665 7.3126246631145495 4.9505257755517986 4.1759953945875159 3.62381383776665 4.4687034785747519 6.5819049626588804 4.1359540224075317 5.4710652679204932 4.1987095475196865 4.6856771409511566 12.382709309458731 3.5897160768508902 6.2581762820482245 4.6134946495294562 698.05385455489159
leaf_count=3022 35 21 20 18 23 31 20 33 20 20 80 23 30 22 4582
internal_value=0.000238228 -0.0651657 0.0590918 0.0320228 -0.0359373 -0.0690482 -0.048126 0.0612918 0.0617848 -0.0782054 0.0654932 0.0614848 -0.0694104 -0.0693839 0.0615413
internal_weight=1382.63 654.87 727.758 25.1558 16.467 629.715 10.7179 711.291 20.2052 11.9983 16.5814 707.115 618.997 612.739 701.644
internal_count=8000 3264 4736 139 78 3125 51 4658 118 55 100 4638 3074 3044 4605
is_linear=0
shrinkage=0.05


Tree=16
num_leaves=16
num_cat=0
split_feature=0 1 3 3 1 3 0 1 0 1 3 3 0 1 1
split_gain=1992.7 92.2741 57.3791 33.7364 29.2851 1.92343 4.30683 1.8436 0.520868 0.270629 0.212484 0.121841 0.0140977 0.00986468 0.000270955
threshold=0.51391134020372176 0.59981308949750323 0.37209102215497808 0.38074566777234875 0.61970697811096687 0.54748319703077108 0.22850593507029818 0.34690999150147467 0.39898129219648421 0.23376891685667686 0.67426099299274422 0.4209177566907723 0.48744498923471474 0.54709255368782572 0.41811729709767825
decision_type=2 2 2 2 2 2 2 2 2 2 2 2 2 2 2
left_child=1 5 4 -3 9 12 -7 -4 -5 -2 -10 -9 13 -1 -13
right_child=2 3 7 8 -6 6 -8 11 10 -11 -12 14 -14 -15 -16
leaf_value=-0.068066936259104024 -0.070051786325794771 -0.086314060830756462 0.027357565430938542 0.04338788029111592 0.075798133673246074 -0.072544991553299687 -0.0072218279229928619 0.053241388928940273 0.074377004642728603 -0.085610299978044327 0.061164771607117752 0.061294190587053356 -0.070505345671600286 -0.070422058919281799 0.060850193233731434
leaf_weight=589.21251349151134 7.0989202111959475 4.8756747543811825 4.1479200124740592 3.5576432645320919 4.3465512394905081 6.3421270996332151 4.1904900074005127 5.2995578795671454 4.0871720165014258 4.610024020075798 11.912401571869848 3.453856721520423 6.0764778405427924 4.4800781011581412 671.33314304053783
leaf_count=3022 35 21 20 18 23 31 20 33 20 20 80 23 30 22 4582
internal_value=0.000240861 -0.0639228 0.0583981 0.0313565 -0.0350346 -0.0677373 -0.0465556 0.0605905 0.0606921 -0.0761775 0.0645399 0.0607932 -0.0681092 -0.0680847 0.0608525
internal_weight=1335.02 634.735 700.29 24.4329 16.0555 610.302 10.5326 684.234 19.5572 11.7089 15.9996 680.087 599.769 593.693 674.787
internal_count=8000 3264 4736 139 78 3125 51 4658 118 55 100 4638 3074 3044 4605
is_linear=0
shrinkage=0.05


Tree=17
num_leaves=16
num_cat=0
split_feature=0 1 3 3 1 3 2 1 0 1 3 3 0 1 1
split_gain=1867.17 86.257 54.1265 31.3388 27.1914 1.9403 4.29503 1.89108 0.707932 0.2208 0.192881 0.128221 0.0117025 0.00810171 0.000225785
threshold=0.51391134020372176 0.59981308949750323 0.37209102215497808 0.38074566777234875 0.61970697811096687 0.54748319703077108 0.4907839706670914 0.34690999150147467 0.38887365577661875 0.23376891685667686 0.66689724197712408 0.4209177566907723 0.48744498923471474 0.54709255368782572 0.41811729709767825
decision_type=2 2 2 2 2 2 2 2 2 2 2 2 2 2 2
left_child=1 5 4 -3 9 12 -7 -4 -5 -2 -10 -9 13 -1 -13
right_child=2 3 7 8 -6 6 -8 11 10 -11 -12 14 -14 -15 -16
leaf_value=-0.066878098210116449 -0.068703027363030494 -0.083524440928807606 0.026169001392092502 0.037079666091734111 0.074183593787966476 -0.071104824910677364 -0.0051965301774413346 0.052277091677649171 0.073239611588006667 -0.082924063263842565 0.060607120665143066 0.060622983496635419 -0.069134241565926791 -0.069045519694171706 0.06020964359794076
leaf_weight=570.18453380465508 6.8818733245134336 4.7887759357690838 4.1202184259891501 2.9326508641243008 4.2222485840320578 6.2575217038393003 4.0859097987413406 5.1317235231399527 4.045693799853324 4.5235698372125626 11.938559830188749 3.3208602964878073 5.891822323203086 4.3443671464920035 645.21285192668438
leaf_count=3022 35 21 20 15 23 31 20 33 20 20 83 23 30 22 4582
internal_value=0.000243086 -0.0627821 0.0577517 0.0307365 -0.0342147 -0.0665347 -0.0450694 0.0599366 0.0596614 -0.0743433 0.0638045 0.0601495 -0.0669172 -0.0668945 0.0602118
internal_weight=1287.88 614.47 673.413 23.7057 15.6277 590.764 10.3434 657.786 18.9169 11.4054 15.9843 653.665 580.421 574.529 648.534
internal_count=8000 3264 4736 139 78 3125 51 4658 118 55 103 4638 3074 3044 4605
is_linear=0
shrinkage=0.05


Tree=18
num_leaves=16
num_cat=0
split_feature=0 1 1 3 3 3 1 3 2 0 3 1 1 0 1
split_gain=1751.17 80.7299 51.1017 29.1543 11.979 1.96062 4.26104 0.905283 1.24078 0.717164 0.160638 0.110708 0.0588862 0.00974647 0.00667697
threshold=0.51391134020372176 0.59981308949750323 0.26837751382573199 0.38074566777234875 0.32339509302136654 0.54748319703077108 0.28749594556086738 0.4209177566907723 0.65435003172282302 0.38887365577661875 0.66689724197712408 0.16126288131429742 0.36997890380634796 0.48744498923471474 0.54709255368782572
decision_type=2 2 2 2 2 2 2 2 2 2 2 2 2 2 2
left_child=1 5 11 -3 -4 13 -7 8 -6 -5 -11 -2 -9 14 -1
right_child=2 3 4 9 7 6 -8 12 -10 10 -12 -13 -14 -15 -16
leaf_value=-0.065786250631724441 -0.069254239734133125 -0.081027501031852633 -0.011463037679465203 0.035812346017131333 0.018963019756019737 -0.070934755390638177 -0.0051945288145166151 0.066163063179146844 0.060775588021248432 0.07169868855419885 0.059984467071466874 -0.057907812523317594 0.059614096730790392 -0.067878540583074992 -0.067785687864517774
leaf_weight=551.14805583655834 4.4874726235866529 4.6919725686311748 6.0123198777437201 2.8858184069395092 3.2535652816295615 5.9394193887710554 4.2134555876255035 3.451530545949935 3.9023660272359848 3.928970828652381 11.471193641424177 4.1268772929906845 621.9369195997715 5.7055004388093939 4.2073288559913626
leaf_count=3022 23 21 27 15 20 30 21 20 27 20 83 21 4598 30 22
internal_value=0.000244963 -0.0617321 0.0571484 0.0301578 0.0587802 -0.0654285 -0.0436525 0.0594479 0.0417648 0.0586867 0.0629731 -0.0638185 0.0596502 -0.0658225 -0.0658014
internal_weight=1241.36 594.192 647.171 22.978 638.557 571.214 10.1529 632.544 7.15593 18.286 15.4002 8.61435 625.388 561.061 555.355
internal_count=8000 3264 4736 139 4692 3125 51 4665 47 118 103 44 4618 3074 3044
is_linear=0
shrinkage=0.05


Tree=19
num_leaves=15
num_cat=0
split_feature=0 3 3 1 1 3 1 3 1 1 3 0 1 1
split_gain=1643.62 75.8744 48.5373 24.7943 10.225 2.56968 1.891 1.30885 0.650805 0.200253 0.137258 0.00702701 0.00189798 0.000143823
threshold=0.51391134020372176 0.66689724197712408 0.37209102215497808 0.61970697811096687 0.71011876372964133 0.57039430620983478 0.34690999150147467 0.73827107599105024 0.5541073815536367 0.23376891685667686 0.4209177566907723 0.42463066971832369 0.73123828519196732 0.41811729709767825
decision_type=2 2 2 2 2 2 2 2 2 2 2 2 2 2
left_child=1 4 3 9 5 8 -4 -3 -1 -2 -8 -9 -13 -12
right_child=2 7 6 -5 -6 -7 10 11 -10 -11 13 12 -14 -15
leaf_value=-0.064818661701543892 -0.066388261880985705 0.023868431699675213 0.024481082914463197 0.072910799452914316 0.015307990584517343 -0.032459373186089581 0.050599346078466702 0.062475434033773085 -0.04972111306106973 -0.080225333193922846 0.059400351607557966 0.060762056215716287 0.059152516601464825 0.059056736108158869
leaf_weight=542.02802705764771 6.4535566419363004 3.1091193705797187 3.9959677308797827 4.0555316209793082 4.0675694942474356 6.2822196185588828 4.8341612517833701 3.2358632385730735 7.2332790344953528 4.3957617282867432 3.0609107315540305 2.8193920701742154 5.2277569621801376 594.91845691204071
leaf_count=3075 35 20 20 23 20 33 33 21 35 20 23 20 40 4582
internal_value=0.000246616 -0.0607626 0.0565739 -0.0325666 -0.0636778 -0.0642562 0.0587634 0.0525925 -0.0646198 -0.0719946 0.0589907 0.0605077 0.0597164 0.0590585
internal_weight=1195.72 574.003 621.714 14.9048 559.611 555.544 606.809 14.3921 549.261 10.8493 602.814 11.283 8.04715 597.979
internal_count=8000 3264 4736 78 3163 3143 4658 101 3110 55 4638 81 60 4605
is_linear=0
shrinkage=0.05


Tree=20
num_leaves=15
num_cat=0
split_feature=0 1 3 3 1 1 1 2 0 1 3 3 3 1
split_gain=1543.71 71.6893 45.858 26.3118 23.1052 1.9724 1.9381 0.623152 0.586259 0.16542 0.153733 0.144501 0.141292 0.000120502
threshold=0.51391134020372176 0.59981308949750323 0.37209102215497808 0.38074566777234875 0.61970697811096687 0.53688536872694514 0.34690999150147467 0.72032820675578735 0.39898129219648421 0.23376891685667686 0.58924411718850211 0.4209177566907723 0.67426099299274422 0.41811729709767825
decision_type=2 2 2 2 2 2 2 2 2 2 2 2 2 2
left_child=1 5 4 -3 9 7 -4 10 -5 -2 -1 -8 -10 -13
right_child=2 3 6 8 -6 -7 11 -9 12 -11 -12 13 -14 -15
leaf_value=-0.06388317744250735 -0.065341255441640295 -0.078162735302823055 0.023412924408026788 0.038412231692390809 0.071523728944513504 -0.034163616921935668 0.049715606247973616 -0.046367338080893113 0.070199333899965619 -0.078095623750304807 -0.07351522077596058 0.058858412541989619 0.058830615579081529 0.05853736147679961
leaf_weight=517.53748409450054 6.2346669435501081 4.5201533287763622 3.9700358659028998 3.2894789725542095 3.9306429103016844 5.6783062219619742 4.6780666410922995 5.0823823213577262 3.7361757159233084 4.292469397187233 4.1760029792785636 2.9377562627196303 10.178106792271135 570.79742220044136
leaf_count=3044 35 21 20 18 23 31 33 29 20 20 21 23 80 4582
internal_value=0.000248005 -0.0598423 0.056045 0.0291895 -0.0319184 -0.0634746 0.0582287 -0.0637905 0.0573954 -0.0705419 -0.0639603 0.0584676 0.0618833 0.058539
internal_weight=1151.04 554.198 596.841 21.7239 14.4578 532.474 582.383 526.796 17.2038 10.5271 521.713 578.413 13.9143 573.735
internal_count=8000 3264 4736 139 78 3125 4658 3094 118 55 3065 4638 100 4605
is_linear=0
shrinkage=0.05


Tree=21
num_leaves=16
num_cat=0
split_feature=0 1 3 3 1 3 0 1 0 3 1 3 1 0 1
split_gain=1451.09 67.3 43.3427 24.5467 21.5591 2.1132 4.32299 1.9845 0.59935 0.151977 0.149154 0.118731 0.00743994 0.00618159 0.000101116
threshold=0.51391134020372176 0.59981308949750323 0.37209102215497808 0.38074566777234875 0.61970697811096687 0.54748319703077108 0.22850593507029818 0.34690999150147467 0.39898129219648421 0.4209177566907723 0.24548417436352785 0.67426099299274422 0.54709255368782572 0.48744498923471474 0.41811729709767825
decision_type=2 2 2 2 2 2 2 2 2 2 2 2 2 2 2
left_child=1 5 4 -3 10 12 -7 -4 -5 -9 -2 -10 13 -1 -11
right_child=2 3 7 8 -6 6 -8 9 11 14 -12 -13 -14 -15 -16
leaf_value=-0.062998604410437739 -0.064334210372048867 -0.076209306002818389 0.022388641173228606 0.037193240379627353 0.07023669168163986 -0.067694107431943859 0.00051682945321433911 0.048854064649342957 0.068930926721237781 0.058352232855073162 -0.076705986708695106 0.058326595991011844 -0.065213427236284788 -0.064738641387722853 0.058051959345393547
leaf_weight=494.86889404058456 6.1794330179691297 4.4070803374052074 3.9447416216135016 3.2289852201938656 3.8057074323296538 5.5807826668024045 3.9789296686649323 4.5264024436473838 3.617685228586196 2.8181055933237067 4.0217099636793137 9.7632536664605123 3.8838177174329749 5.157339170575141 547.38407308608294
leaf_count=3022 36 21 20 18 23 31 20 33 20 23 19 80 22 30 4582
internal_value=0.000249286 -0.0590022 0.0555491 0.0286941 -0.0313231 -0.0625917 -0.0393034 0.0577271 0.0565279 0.0579784 -0.0692117 0.0611936 -0.0630335 -0.0630166 0.0580535
internal_weight=1107.17 534.487 572.68 21.017 14.0069 513.47 9.55971 558.673 16.6099 554.729 10.2011 13.3809 503.91 500.026 550.202
internal_count=8000 3264 4736 139 78 3125 51 4658 118 4638 55 100 3074 3052 4605
is_linear=0
shrinkage=0.05


Tree=22
num_leaves=16
num_cat=0
split_feature=0 3 3 1 1 0 1 3 3 3 1 0 1 0 1
split_gain=1365.06 63.3015 40.9797 20.1396 8.79207 19.1654 2.03011 1.27023 0.604269 0.159686 0.123929 0.0063888 0.00497696 0.000657116 8.49788e-05
threshold=0.51391134020372176 0.66689724197712408 0.37209102215497808 0.61970697811096687 0.5541073815536367 0.37930611183119417 0.34690999150147467 0.73827107599105024 0.57039430620983478 0.4209177566907723 0.24548417436352785 0.48744498923471474 0.78040609943429329 0.45256481619358963 0.41811729709767825
decision_type=2 2 2 2 2 2 2 2 2 2 2 2 2 2 2
left_child=1 4 3 10 8 -6 -4 -3 11 -8 -2 -1 -9 -14 -11
right_child=2 7 6 -5 5 -7 9 12 -10 14 -12 -13 13 -15 -16
leaf_value=-0.062221026829795148 -0.063445549098042772 0.021508578354799752 0.021406326075756276 0.069040410281190748 -0.071003482909785851 0.060808021852195852 0.048011914997005981 0.060341162010156893 -0.044836756949531653 0.057878957184150703 -0.074896439221101813 -0.063988338118101645 0.058719548010567071 0.057633942292067225 0.0575978345378797
leaf_weight=480.34152947366238 5.9582912474870664 2.8931432440876952 3.920115962624549 3.6812269762158385 6.8250155597925168 4.6275396347045898 4.379259154200553 4.4264499843120557 5.0396786332130423 2.7020284458994857 3.9156226068735123 5.1687006503343573 2.4601732939481735 3.2162053808569908 524.68896567821503
leaf_count=3044 36 20 20 23 35 25 33 33 28 23 19 31 20 28 4582
internal_value=0.000250194 -0.0582295 0.0550835 -0.0307736 -0.06105 -0.0177435 0.057256 0.0507194 -0.0620611 0.0575203 -0.0679865 -0.0622398 0.0590844 0.0581044 0.0575993
internal_weight=1064.24 514.998 549.246 13.5551 502.002 11.4526 535.69 12.996 490.55 531.77 9.87391 485.51 10.1028 5.67638 527.391
internal_count=8000 3264 4736 78 3163 60 4658 101 3103 4638 55 3075 81 48 4605
is_linear=0
shrinkage=0.05


Tree=23
num_leaves=14
num_cat=0
split_feature=0 1 1 3 3 1 2 0 2 0 3 3 1
split_gain=1284.88 71.1379 32.4371 22.4093 4.5534 2.64057 1.1571 0.777822 0.688525 0.188608 0.14492 0.0874038 0.0191018
threshold=0.52624611948550359 0.59981308949750323 0.30099802544396997 0.38074566777234875 0.37209102215497808 0.53688536872694514 0.35021676617833863 0.38887365577661875 0.72032820675578735 0.49902861953956218 0.4209177566907723 0.65175078625511673 0.38388370178406922
decision_type=2 2 2 2 2 2 2 2 2 2 2 2 2
left_child=1 5 6 -3 -4 8 -2 -5 9 -1 -6 -9 -12
right_child=2 3 4 7 10 -7 -8 11 -10 -11 12 -13 -14
leaf_value=-0.061561140883823889 -0.066047753469309259 -0.073041536501845528 0.01269262602243227 0.030213465629422426 0.048116021486668756 -0.026622620807337034 -0.026714463071514871 0.066272625556874076 -0.042328718179042248 -0.072167283249054956 0.06114767770661033 0.057509448096666485 0.05717258879857437
leaf_weight=463.81422063708305 4.0618537962436667 4.199358448386195 5.834115467965602 2.6232856214046505 4.4324768781661978 5.5005125254392615 3.4646413177251816 3.7919788658618918 4.6533990353345862 4.2298739850521079 3.0405049994587889 11.39900356531143 501.40154903382063
leaf_count=3050 24 21 34 15 34 33 20 23 29 24 22 101 4570
internal_value=0.000250986 -0.0570203 0.055107 0.0308621 0.0566139 -0.0610659 -0.0479416 0.0553553 -0.0614667 -0.061657 0.0571175 0.0596969 0.0571965
internal_weight=1022.45 500.212 522.235 22.0136 514.709 478.198 7.5265 17.8143 472.697 468.044 508.875 15.191 504.442
internal_count=8000 3296 4704 160 4660 3136 44 139 3103 3074 4626 124 4592
is_linear=0
shrinkage=0.05


Tree=24
num_leaves=15
num_cat=0
split_feature=0 1 1 3 3 3 0 0 0 0 3 3 1 1
split_gain=1209.86 66.9108 30.6216 20.9754 3.96884 2.7514 6.46447 1.61532 0.79029 0.167646 0.153201 0.0739511 0.0101351 0.00678808
threshold=0.52624611948550359 0.59981308949750323 0.30947005913470743 0.38074566777234875 0.37209102215497808 0.54748319703077108 0.26796057803724344 0.58721798799302671 0.38887365577661875 0.49902861953956218 0.4209177566907723 0.65175078625511673 0.38388370178406922 0.54709255368782572
decision_type=2 2 2 2 2 2 2 2 2 2 2 2 2 2
left_child=1 5 7 -3 -4 9 -7 -2 -5 13 -6 -10 -12 -1
right_child=2 3 4 8 10 6 -8 -9 11 -11 12 -13 -14 -15
leaf_value=-0.060792392619614333 -0.06484769970805665 -0.071532746746970161 0.014534466303295661 0.029150250689972537 0.047297814361681817 -0.066150085244957593 0.020297677709961354 -0.018929242698518034 0.065303645870621971 -0.071211236659654328 0.059834907021964451 0.05709064241256491 0.056774018148755594 -0.06298722534180648
leaf_weight=443.51739902794361 4.2317709922790518 4.0766487419605282 5.6432706490159026 2.5840342491865185 4.2873961403965941 5.6802129000425321 3.4920064657926559 3.4987314939498901 3.6591990739107123 3.9077589809894553 2.7197301238775244 10.920592978596686 480.21134501695633 3.5509746521711341
leaf_count=3038 26 21 33 15 34 34 19 20 23 23 21 101 4570 22
internal_value=0.000251798 -0.0563436 0.0546761 0.0304199 0.0562248 -0.0603486 -0.0332381 -0.0440656 0.0546351 -0.0609 0.0567077 0.0591519 0.0567913 -0.0608098
internal_weight=981.981 481.389 500.592 21.2405 492.862 460.148 9.17222 7.7305 17.1638 450.976 487.218 14.5798 482.931 447.068
internal_count=8000 3296 4704 160 4658 3136 53 46 139 3083 4625 124 4591 3060
is_linear=0
shrinkage=0.05


Tree=25
num_leaves=16
num_cat=0
split_feature=0 1 3 0 3 1 3 2 3 0 1 3 0 3 1
split_gain=1139.94 62.9976 29.3601 19.691 3.24778 3.0383 2.74519 6.3297 0.398816 0.147262 0.135461 0.329874 0.0222176 0.00823267 0.00566963
threshold=0.52624611948550359 0.59981308949750323 0.30454978134024846 0.3403755892586548 0.19306777513955997 0.34690999150147467 0.54748319703077108 0.50216929608727423 0.61260415234251331 0.49902861953956218 0.46742144556409676 0.70576410426278835 0.39898129219648421 0.4209177566907723 0.54709255368782572
decision_type=2 2 2 2 2 2 2 2 2 2 2 2 2 2 2
left_child=1 6 4 -3 -2 -4 9 -8 -5 14 11 -7 -10 -12 -1
right_child=2 3 5 8 -6 10 7 -9 12 -11 13 -13 -14 -15 -16
leaf_value=-0.060155890572658313 -0.063205041647495436 -0.070676314197714252 0.013846767186574158 0.038781850793518036 -0.00066664725966272809 0.032710896189117433 -0.066059255701358885 0.019951853068417534 0.062296167045876087 -0.070090805769315423 0.058308766922589551 0.056496780529116636 0.056903749296527729 0.056399714197724993 -0.062199999944220652
leaf_weight=426.23720699548721 5.0403766930103284 3.9260897636413601 4.2491553127765647 3.4639748856425312 3.5299423485994339 2.0780127793550482 5.452464357018469 3.5198692977428436 2.3218664303421965 3.7750809192657462 5.7184560000896445 4.88250832259655 10.772748880088328 454.18674968183041 3.419453263282775
leaf_count=3038 32 20 23 22 18 20 33 20 15 23 48 48 103 4515 22
internal_value=0.000252236 -0.0557227 0.0542672 0.0299986 -0.0374467 0.0559356 -0.0596919 -0.0323169 0.0538689 -0.0602585 0.0563187 0.0493957 0.0578599 0.0564235 -0.0601722
internal_weight=942.574 462.889 479.685 20.4847 8.57032 471.115 442.404 8.97233 16.5586 433.432 466.866 6.96052 13.0946 459.905 429.657
internal_count=8000 3296 4704 160 50 4654 3136 53 140 3083 4631 68 118 4563 3060
is_linear=0
shrinkage=0.05


Tree=26
num_leaves=15
num_cat=0
split_feature=0 1 1 3 0 3 3 0 0 3 0 3 1 1
split_gain=1074.53 59.4045 27.9618 18.6973 3.22656 3.11671 2.74728 6.01946 0.796946 0.149839 0.129534 0.0579344 0.0047445 0.00328725
threshold=0.52624611948550359 0.59981308949750323 0.3176899480190965 0.38074566777234875 0.59493669921118875 0.33433614512296222 0.54748319703077108 0.26796057803724344 0.38887365577661875 0.4209177566907723 0.49902861953956218 0.65175078625511673 0.54709255368782572 0.39426940779914055
decision_type=2 2 2 2 2 2 2 2 2 2 2 2 2 2
left_child=1 6 4 -3 -2 -4 10 -8 -5 -7 12 -10 -1 -11
right_child=2 3 5 8 -6 9 7 -9 11 13 -12 -13 -14 -15
leaf_value=-0.05956300938708825 -0.065885735188556449 -0.069098691838388779 0.015201730537389262 0.027442013013957746 -0.0024979521611140755 0.046902339694005979 -0.064629254727956942 0.020168424311967352 0.063846887856435872 0.057923085294282153 -0.06904687553206533 0.056326683544790014 -0.061469266060204045 0.05604965360756186
leaf_weight=409.38258966803551 4.5536156296730024 3.8683112114667919 4.7384565472602835 2.4871463030576697 3.5905127972364426 4.5127435550093642 5.3410126417875272 3.4411997944116592 3.4416874498128882 2.3540472388267508 3.6438773125410071 10.008931532502173 3.2903677076101294 439.727843336761
leaf_count=3038 29 21 27 15 21 39 34 19 23 21 23 101 22 4567
internal_value=0.000252573 -0.0551336 0.0538822 0.0295095 -0.0379399 0.0555391 -0.0590773 -0.0314023 0.0534431 0.0559671 -0.0596611 0.0582509 -0.0595782 0.0560596
internal_weight=904.382 444.905 459.477 19.8061 8.14413 451.333 425.099 8.78221 15.9378 446.595 416.317 13.4506 412.673 442.082
internal_count=8000 3296 4704 160 50 4654 3136 53 139 4627 3083 124 3060 4588
is_linear=0
shrinkage=0.05


Tree=27
num_leaves=16
num_cat=0
split_feature=0 1 3 3 3 1 3 2 0 1 2 0 3 3 1
split_gain=1013.37 56.004 26.9468 17.5314 3.09171 2.90267 2.74275 6.30638 0.809576 0.146559 0.353478 0.114066 0.0491835 0.00709468 0.00397732
threshold=0.52624611948550359 0.59981308949750323 0.30454978134024846 0.38074566777234875 0.19306777513955997 0.34690999150147467 0.54748319703077108 0.50535668606375872 0.38887365577661875 0.46742144556409676 0.6068135468420276 0.49902861953956218 0.65175078625511673 0.4209177566907723 0.54709255368782572
decision_type=2 2 2 2 2 2 2 2 2 2 2 2 2 2 2
left_child=1 6 4 -3 -2 -4 11 -8 -5 10 -7 14 -10 -11 -1
right_child=2 3 5 8 -6 9 7 -9 12 13 -12 -13 -14 -15 -16
leaf_value=-0.059010079379281544 -0.062240463538056359 -0.067901562044984348 0.013754037063847197 0.026453817445504881 -0.0002687042763998006 0.03022063600164537 -0.064531570659346491 0.023472646482407981 0.063047417175786089 0.057555780713037075 0.055823870990091978 -0.068071841942914199 0.055980806325132228 0.055719058085646048 -0.060789954683142994
leaf_weight=392.97294192016125 4.757448881864546 3.7428673803806332 4.1789884641766539 2.4519641846418372 3.4882026165723801 1.9277369156479824 5.2711894884705526 3.3165092766284943 3.314291685819625 5.3248988166451445 4.4831355288624763 3.5145475044846526 9.5781238824129087 415.85757896304131 3.1639805734157553
leaf_count=3038 32 21 23 15 18 20 34 19 23 48 48 23 101 4515 22
internal_value=0.000252772 -0.0545892 0.0535129 0.0291224 -0.0360242 0.0552228 -0.0585031 -0.030545 0.0527889 0.0556281 0.048125 -0.0591039 0.0577974 0.0557423 -0.0590243
internal_weight=867.344 427.326 440.018 19.0872 8.24565 431.772 408.239 8.5877 15.3444 427.593 6.41087 399.651 12.8924 421.182 396.137
internal_count=8000 3296 4704 160 50 4654 3136 53 139 4631 68 3083 124 4563 3060
is_linear=0
shrinkage=0.05


Tree=28
num_leaves=16
num_cat=0
split_feature=0 1 3 3 1 3 0 1 2 1 2 2 3 2 0
split_gain=956.171 53.7475 27.9044 15.9885 4.08002 3.41377 1.27451 3.27392 0.363585 0.19001 0.332372 0.139272 0.136475 0.0664399 0.0220717
threshold=0.47715406841047142 0.38388370178406922 0.69350233955179952 0.6186882305213296 0.71011876372964133 0.33992308030560514 0.43849741619816368 0.3176899480190965 0.45381257971787142 0.46742144556409676 0.65191939956766343 0.63748397866025197 0.31668976806593646 0.70275182044309414 0.49902861953956218
decision_type=2 2 2 2 2 2 2 2 2 2 2 2 2 2 2
left_child=2 3 4 8 6 -3 13 -8 12 10 -7 -4 -2 -1 -11
right_child=1 5 11 -5 -6 9 7 -9 -10 14 -12 -13 -14 -15 -16
leaf_value=-0.058627718185652704 -0.0599667261427013 0.013524623582484262 0.041787922641828852 0.065281120159077277 0.0017438977785609205 0.028841529565472524 -0.058522773031194297 0.010240747864329432 -0.043711319090696782 0.059265696071360431 0.055465525724934066 0.057435727684450467 -0.072457245596697181 -0.052236894585247676 0.055428611643327554
leaf_weight=374.03510615229607 7.7819245457649249 4.9379206150770178 2.3407249599695197 3.1714575514197341 2.8666246831417075 1.8508571833372105 6.0953566879034025 2.4175072312355042 2.963713936507701 3.782757230103015 3.1971801966428757 3.6228965818881989 3.0417082160711288 4.1115243732929221 405.25666171312332
leaf_count=3000 59 30 21 24 16 20 49 16 19 36 36 35 17 31 4591
internal_value=0.000252897 0.0513205 -0.0560436 -0.0359437 -0.0576869 0.0548523 -0.0581275 -0.0389951 -0.0592281 0.0553451 0.0457039 0.051294 -0.0634769 -0.0585582 0.0554641
internal_weight=831.474 435.984 395.49 16.9588 389.526 419.025 386.659 8.51286 13.7873 414.087 5.04804 5.96362 10.8236 378.147 409.039
internal_count=8000 4832 3168 119 3112 4713 3096 65 95 4683 56 56 76 3031 4627
is_linear=0
shrinkage=0.05


Tree=29
num_leaves=16
num_cat=0
split_feature=0 1 1 0 3 1 3 1 3 0 3 1 0 0 1
split_gain=902.765 50.1229 26.0687 16.147 5.48586 8.04175 2.68037 5.91303 0.420599 0.263989 1.01926 0.143225 0.0929173 0.0157606 0.00285407
threshold=0.52624611948550359 0.59981308949750323 0.2510994055003265 0.3403755892586548 0.38074566777234875 0.67615589172161095 0.54748319703077108 0.38388370178406922 0.60270609128069641 0.570908761782144 0.65789598822208295 0.36997890380634796 0.49902861953956218 0.39898129219648421 0.54709255368782572
decision_type=2 2 2 2 2 2 2 2 2 2 2 2 2 2 2
left_child=1 6 -2 -3 5 -4 12 -8 -5 10 -6 -11 14 -10 -1
right_child=2 3 4 8 9 -7 7 -9 13 11 -12 -13 -14 -15 -16
leaf_value=-0.058014029439215679 -0.061042371509651243 -0.06685440958281523 -0.049081923693689661 0.035150119859905536 0.014610826133214978 0.064541472325204657 -0.062563517205226779 0.025189519983182026 0.060433610543743944 0.066329563232991856 0.055247844321365307 0.055130967519565546 -0.066457366520669858 0.055618697816362341 -0.059582676362997467
leaf_weight=361.60531517863274 4.9620623365044585 3.5620317757129696 3.115077167749404 2.8945770859718314 1.9555296748876552 3.113878570497036 5.0321534648537618 3.1036435663700104 2.0808620229363433 2.8767895698547354 7.3155648857355118 379.74801070988178 3.2977262437343589 9.2749451920390111 2.9231476560235015
leaf_count=3038 36 20 16 20 21 24 35 18 15 20 86 4501 23 105 22
internal_value=0.000253093 -0.0535914 0.0528537 0.0283635 0.0542732 0.00771884 -0.0574743 -0.0290875 0.0521641 0.0550132 0.0466764 0.0552152 -0.0581022 0.056501 -0.0580266
internal_weight=796.861 393.774 403.087 17.8124 398.125 6.22896 375.962 8.1358 14.2504 391.896 9.27109 382.625 367.826 11.3558 364.528
internal_count=8000 3296 4704 160 4668 40 3136 53 140 4628 107 4521 3083 120 3060
is_linear=0
shrinkage=0.05


Tree=30
num_leaves=15
num_cat=0
split_feature=0 1 1 3 3 1 1 0 2 0 3 1 3 3
split_gain=852.537 47.3795 24.6461 15.0924 5.30812 7.49278 2.66801 0.826462 0.753666 0.272942 1.01691 0.123765 0.11707 0.0414239
threshold=0.52624611948550359 0.59981308949750323 0.2510994055003265 0.38074566777234875 0.38074566777234875 0.67615589172161095 0.53688536872694514 0.38887365577661875 0.72032820675578735 0.570908761782144 0.65789598822208295 0.36997890380634796 0.6186882305213296 0.65175078625511673
decision_type=2 2 2 2 2 2 2 2 2 2 2 2 2 2
left_child=1 6 -2 -3 5 -4 8 -5 12 10 -6 -11 -1 -9
right_child=2 3 4 7 9 -7 -8 13 -10 11 -12 -13 -14 -15
leaf_value=-0.057651192848892009 -0.060415936813480856 -0.065610264696082457 -0.047428741103929216 0.024092968799971547 0.014021918484540333 0.06376347099928216 -0.018813373735743349 0.061858530288170767 -0.035062749973939857 0.065461389543918766 0.054966906050893376 0.054855779644239447 -0.069468190628966198 0.055065562391841773
leaf_weight=350.18896830826998 4.7677569836378089 3.4477659612894085 3.0637944787740699 2.3091315031051627 1.9362794011831264 2.9972355514764786 4.5164520367979994 3.0649694949388495 3.7083300426602355 2.7718560993671408 6.9934468790888786 362.99373847991228 2.1085280105471602 8.3811962306499463
leaf_count=3062 36 21 16 15 21 24 33 23 29 20 86 4501 12 101
internal_value=0.000253285 -0.0531332 0.0525598 0.0279331 0.0539745 0.00755684 -0.0570014 0.0513797 -0.0574859 0.0547253 0.0460886 0.0549362 -0.0577219 0.0568845
internal_weight=763.249 377.725 385.524 17.2031 380.756 6.06103 360.522 13.7553 356.006 374.695 8.92973 365.766 352.297 11.4462
internal_count=8000 3296 4704 160 4668 40 3136 139 3103 4628 107 4521 3074 124
is_linear=0
shrinkage=0.05


Tree=31
num_leaves=14
num_cat=0
split_feature=0 3 1 0 3 1 2 3 0 1 0 1 3
split_gain=805.305 45.0974 23.3536 19.3127 4.92526 2.11255 5.47251 0.237916 0.106014 0.171806 0.0739895 0.0367502 0.00212756
threshold=0.52624611948550359 0.56287181145012533 0.26837751382573199 0.3403755892586548 0.37209102215497808 0.5541073815536367 0.49318632900214682 0.4209177566907723 0.49902861953956218 0.62999418333019908 0.49902861953956218 0.36997890380634796 0.54107271337456642
decision_type=2 2 2 2 2 2 2 2 2 2 2 2 2
left_child=1 5 -2 -3 -4 10 -7 -6 9 -5 12 -9 -1
right_child=2 3 4 8 7 6 -8 11 -10 -11 -12 -13 -14
leaf_value=-0.05714586084299559 -0.052989235821787301 -0.061342684288701904 0.0068262262502569258 0.071723921023412018 0.041085491079644668 -0.065348343206168835 0.024615354429349669 0.06071265884089122 0.049301861331334969 0.056242894249527157 -0.064954218236293271 0.054588292681285504 -0.05867015344636918
leaf_weight=332.34990388900042 5.194198675453662 4.6694309934973743 5.4992357790470114 2.3658590838313085 3.2716639265418044 4.2527175694704047 2.8056078478693962 2.4666553288698188 3.0387645885348311 7.3907287940382957 3.0699090883135787 352.20168177783489 2.3050864711403838
leaf_count=3039 39 32 36 17 34 28 20 20 36 82 23 4575 19
internal_value=0.000253667 -0.0526909 0.0522811 0.0256943 0.0537856 -0.0566614 -0.0295887 0.0545071 0.0574569 0.0599969 -0.0572272 0.0546309 -0.0571564
internal_weight=730.881 362.248 368.633 17.4648 363.439 344.783 7.05833 357.94 12.7954 9.75659 337.725 354.668 334.655
internal_count=8000 3296 4704 167 4665 3129 48 4629 135 99 3081 4595 3058
is_linear=0
shrinkage=0.05


Tree=32
num_leaves=18
num_cat=0
split_feature=1 0 0 3 2 3 0 1 2 1 1 0 3 3 3 3 2
split_gain=761.329 51.5005 45.3866 2.85913 1.19238 0.730756 0.453674 0.437841 0.225286 0.220222 0.0953631 0.0722986 0.0613706 0.049796 0.00473869 0.004664 1.69507e-05
threshold=0.50341760242383582 0.3403755892586548 0.63018693443196383 0.30454978134024846 0.72032820675578735 0.67081224238091897 0.51391134020372176 0.2510994055003265 0.42270491784366082 0.59981308949750323 0.34690999150147467 0.48744498923471474 0.65572124678348953 0.6074183404154968 0.23033713562195227 0.4209177566907723 0.61145153536699526
decision_type=2 2 2 2 2 2 2 2 2 2 2 2 2 2 2 2 2
left_child=2 8 4 -3 6 -4 13 -8 9 14 -7 12 -5 -1 -2 -13 -12
right_child=1 3 5 11 -6 10 7 -9 -10 -11 16 15 -14 -15 -16 -17 -18
leaf_value=-0.056758072321890632 -0.056906914951083035 0.0062522094825966813 0.026471034911117505 0.064446415272310931 -0.029451788658175878 0.067908873928620037 -0.059564697840576802 -0.084335533753342073 -0.046166234959188014 -0.076250335494986304 0.054535569415162223 0.055954173094287268 0.055905574236467276 -0.064607521289759245 -0.059890051175824778 0.054351616042548782 0.054357627747975416
leaf_weight=315.35356292128563 3.0888899117708188 3.0988269299268714 2.5517551898956281 3.2007909044623357 3.9483033493161193 1.6665892302989957 4.5583362206816664 2.9309605583548546 2.348822295665741 2.4505947604775429 1.9802585318684576 4.6028616577386847 6.1341116800904274 2.0335170626640311 2.3394795432686806 333.28583713620901 4.1288406848907471
leaf_count=3010 29 17 27 20 35 11 37 16 19 14 26 50 71 14 19 4529 56
internal_value=0.000253678 0.0508378 -0.0535219 0.0540666 -0.0567635 0.0496882 -0.0570954 -0.0692588 -0.0597574 -0.0638091 0.0573074 0.0544934 0.0588341 -0.0568084 -0.0581926 0.0543734 0.0544153
internal_weight=699.702 360.55 339.152 350.322 328.825 10.3274 324.876 7.4893 10.2278 7.87896 7.77569 347.224 9.3349 317.387 5.42837 337.889 6.1091
internal_count=8000 4768 3232 4687 3112 120 3077 53 81 62 93 4670 91 3024 48 4579 82
is_linear=0
shrinkage=0.05


Tree=33
num_leaves=16
num_cat=0
split_feature=0 3 1 0 3 1 1 2 3 0 0 1 1 0 3
split_gain=719.682 40.4471 21.1491 17.1218 4.84517 4.93001 2.04801 4.8005 0.292473 0.976939 0.102463 0.152191 0.0854087 0.0550482 0.0015557
threshold=0.52624611948550359 0.56287181145012533 0.2510994055003265 0.3403755892586548 0.38074566777234875 0.68922255678445299 0.5541073815536367 0.49318632900214682 0.46908145913709121 0.73883273634220814 0.49902861953956218 0.62999418333019908 0.36997890380634796 0.49902861953956218 0.54107271337456642
decision_type=2 2 2 2 2 2 2 2 2 2 2 2 2 2 2
left_child=1 6 -2 -3 5 -4 13 -8 9 -6 11 -5 -10 14 -1
right_child=2 3 4 10 8 -7 7 -9 12 -11 -12 -13 -14 -15 -16
leaf_value=-0.056380103756220649 -0.058892538533645726 -0.059100581899345229 -0.031631053169006468 0.070718295534377432 0.012431106473075396 0.062443955981105109 -0.063643453349032805 0.022618429142527582 0.063306557833940624 0.054778378247941552 0.048350733386748314 0.055583631184628973 0.05411560987395584 -0.063378811192422252 -0.057738904256367352
leaf_weight=304.81221774220467 4.2645172774791709 4.38139829784632 3.34100268036127 2.2023571878671628 1.828321486711501 2.3880695402622223 3.9552588239312163 2.7233067974448204 2.5479731261730185 5.3390429392457008 2.8033387139439574 6.7581112235784531 317.30902990698814 2.8432680815458289 2.1211188808083525
leaf_count=3039 36 32 19 17 21 21 28 20 21 70 36 82 4516 23 19
internal_value=0.000253876 -0.0519247 0.0517485 0.0252699 0.0531664 0.00758257 -0.055863 -0.0284686 0.053965 0.043976 0.0566934 0.0593035 0.0541888 -0.0564536 -0.0563895
internal_weight=669.618 332.6 337.018 16.1452 332.753 5.72907 316.455 6.67857 327.024 7.16736 11.7638 8.96047 319.857 309.777 306.933
internal_count=8000 3296 4704 167 4668 40 3129 48 4628 91 135 99 4537 3081 3058
is_linear=0
shrinkage=0.05


Tree=34
num_leaves=18
num_cat=0
split_feature=1 0 0 3 2 3 0 1 2 2 1 1 0 1 3 3 2
split_gain=680.951 46.2903 40.5095 4.18859 1.19604 0.674721 0.391345 0.409753 0.225451 0.183618 0.309169 0.169723 0.0949099 0.0712861 0.0374367 0.00352961 1.26432e-05
threshold=0.50341760242383582 0.3403755892586548 0.63018693443196383 0.23957152587950378 0.72032820675578735 0.68726137346467697 0.51391134020372176 0.25508592704389604 0.42270491784366082 0.29496123895091425 0.78727099889777452 0.59981308949750323 0.48744498923471474 0.34690999150147467 0.6074183404154968 0.23033713562195227 0.61145153536699526
decision_type=2 2 2 2 2 2 2 2 2 2 2 2 2 2 2 2 2
left_child=2 8 4 -3 6 -4 14 -8 11 10 -5 15 -11 -7 -1 -2 -15
right_child=1 3 5 9 -6 13 7 -9 -10 12 -12 -13 -14 16 -16 -17 -18
leaf_value=-0.056035902643143842 -0.056156891299575434 -0.038720505553746232 0.026641060211916284 0.026224876883599386 -0.027940849176776358 0.066108375048408538 -0.058530069197799364 -0.083445461195459106 -0.044367933760288143 0.059316704508805378 0.054140475210936935 -0.073715900612300503 0.053928012562377829 0.05406737491154634 -0.06309599555751487 -0.058843216171357821 0.053905490725742106
leaf_weight=288.92878257483244 2.8277632594108564 1.2244758307933796 2.557219095528124 1.5966234356164921 3.7480914518237105 1.5522625148296354 4.3161767721176139 2.671553298830986 2.2372895106673241 8.3952606841921789 2.6184556931257248 2.3096755743026733 306.13916070759296 1.8066600710153577 1.8899397999048222 2.1543865576386452 3.6284005418419838
leaf_count=3010 29 8 29 21 35 11 38 15 19 89 38 14 4531 26 14 19 54
internal_value=0.000253964 0.0503442 -0.0527996 0.0535784 -0.0560095 0.0486159 -0.0563627 -0.0680557 -0.0582523 0.0539329 0.0435664 -0.0625124 0.0540718 0.0566583 -0.0560818 -0.0573185 0.0539593
internal_weight=640.602 329.503 311.099 319.974 301.555 9.54454 297.806 6.98773 9.52911 318.75 4.21508 7.29183 314.534 6.98732 290.819 4.98215 5.43506
internal_count=8000 4768 3232 4687 3112 120 3077 53 81 4679 59 62 4620 91 3024 48 80
is_linear=0
shrinkage=0.05


Tree=35
num_leaves=17
num_cat=0
split_feature=1 0 0 3 2 2 0 1 3 2 1 0 1 3 3 3
split_gain=643.996 43.8007 38.2893 3.98351 1.23754 0.799688 0.348751 0.36536 0.256926 0.227234 0.146983 0.0846144 0.0566478 0.0329691 0.00303961 3.19281e-05
threshold=0.50341760242383582 0.3403755892586548 0.63018693443196383 0.23957152587950378 0.72032820675578735 0.55299491287071911 0.51391134020372176 0.25508592704389604 0.36503795806332873 0.42270491784366082 0.59981308949750323 0.48744498923471474 0.34690999150147467 0.61260415234251331 0.23033713562195227 0.69045178575913047
decision_type=2 2 2 2 2 2 2 2 2 2 2 2 2 2 2 2
left_child=2 9 4 -3 6 -4 13 -8 -5 10 14 -10 -7 -1 -2 -14
right_child=1 3 5 8 -6 12 7 -9 11 -11 -12 -13 15 -15 -16 -17
leaf_value=-0.055708072228704233 -0.055820757564539095 -0.037444779595159676 0.021937092006802016 0.039421956446304418 -0.02691168321852332 0.06451078974001799 -0.058064406947027948 -0.082027314898046599 0.058873028133109545 -0.043379814978206532 -0.072463599553943991 0.053711626392526225 0.054002157563711441 -0.062692806693603984 -0.058367808610852258 0.053722548820725184
leaf_weight=276.5364593192935 2.7056385874748212 1.2034279257059086 2.2440751343965513 3.1168575808405867 3.698156125843524 1.6008020266890524 4.1377657651901236 2.584070660173893 8.1615683995187265 2.175425224006176 2.2340317741036415 293.18753054738045 1.3712531104683874 1.6998408958315838 2.0655843541026115 3.9967387393116951
leaf_count=3011 29 8 26 24 35 12 38 15 90 19 14 4565 20 13 19 62
internal_value=0.00025407 0.0501129 -0.0524471 0.0533448 -0.0556497 0.0478964 -0.0560226 -0.0672765 0.0537037 -0.0574957 -0.0618793 0.0538514 0.0562557 -0.0557507 -0.0569234 0.053794
internal_weight=612.719 314.85 297.869 305.669 288.656 9.21287 284.958 6.72184 304.466 9.18068 7.00525 301.349 6.96879 278.236 4.77122 5.36799
internal_count=8000 4768 3232 4687 3112 120 3077 53 4679 81 62 4655 94 3024 48 82
is_linear=0
shrinkage=0.05


Tree=36
num_leaves=15
num_cat=0
split_feature=0 3 1 0 3 1 2 3 1 0 3 0 0 2
split_gain=609.542 34.4441 18.2521 14.3274 6.99923 1.93616 4.0053 1.09091 2.59129 0.0974857 0.136927 0.0782968 0.0341661 0.00113769
threshold=0.52624611948550359 0.56287181145012533 0.2510994055003265 0.3403755892586548 0.19306777513955997 0.5541073815536367 0.49318632900214682 0.4209177566907723 0.6783769464718068 0.49902861953956218 0.67928365226628507 0.54955854450930908 0.49902861953956218 0.72345538439629375
decision_type=2 2 2 2 2 2 2 2 2 2 2 2 2 2
left_child=1 5 -2 -3 -4 12 -7 8 -6 10 -5 -9 13 -1
right_child=2 3 4 9 7 6 -8 11 -10 -11 -12 -13 -14 -15
leaf_value=-0.055397081839856699 -0.057657917132563824 -0.055898533808874898 -0.062111652014985003 0.069694051514999397 -0.0062432204204786639 -0.061466392905176893 0.0206775133654368 0.045766339088355784 0.058307462513241051 0.047180980440641333 0.054644872339335709 0.053568685831775431 -0.061252962875809218 -0.056461631217937819
leaf_weight=266.4042913466692 3.8105898946523658 3.974095754325389 1.3263104707002629 2.0442906618118268 2.5728626251220694 3.5324239805340758 2.5590012595057487 3.2528516799211493 3.9288483150303364 2.4724048264324665 5.7992625311017036 279.175347186625 2.5228709504008284 2.5336343348026267
leaf_count=3033 36 32 9 17 18 28 20 50 44 36 82 4547 23 25
internal_value=0.000254163 -0.0509383 0.0510593 0.024764 0.0524866 -0.0548359 -0.0269578 0.0530127 0.0327634 0.0558383 0.0585672 0.0534788 -0.0554614 -0.0554071
internal_weight=585.909 291.842 294.067 14.2901 290.256 277.552 6.09143 288.93 6.50171 10.316 7.84355 282.428 271.461 268.938
internal_count=8000 3296 4704 167 4668 3129 48 4659 62 135 99 4597 3081 3058
is_linear=0
shrinkage=0.05


Tree=37
num_leaves=16
num_cat=0
split_feature=1 0 0 3 2 2 0 0 2 1 0 1 0 3 2
split_gain=576.831 39.4205 34.3612 3.68979 1.254 0.768828 0.38888 0.320353 0.23165 0.113979 0.06418 0.0516025 0.0505913 0.00227992 2.08398e-05
threshold=0.50341760242383582 0.3403755892586548 0.63018693443196383 0.23957152587950378 0.72032820675578735 0.55299491287071911 0.38887365577661875 0.56061137349714307 0.42270491784366082 0.59981308949750323 0.48744498923471474 0.34112560372696404 0.51391134020372176 0.23033713562195227 0.63229278342086992
decision_type=2 2 2 2 2 2 2 2 2 2 2 2 2 2 2
left_child=2 8 4 -3 7 -4 -5 12 9 13 -8 -7 -1 -2 -13
right_child=1 3 5 6 -6 11 10 -9 -10 -11 -12 14 -14 -15 -16
leaf_value=-0.055147924075883738 -0.055200916165831629 -0.036153472585502375 0.021056116266461894 0.028998498955466634 -0.025339825718884535 0.064741691266045925 0.058448057722254233 -0.071586097742929469 -0.041595454929279269 -0.070386765773644971 0.053327480026085422 0.0536335065509859 -0.061453574169850526 -0.057505093262162021 0.053398898071496295
leaf_weight=254.45634511113167 2.4722862467169744 1.1576011925935734 2.1397062763571721 1.6365824118256558 3.5122405514121047 1.2628295570611952 6.2613338939845553 3.0276783928275099 2.074462465941906 2.0949667692184448 269.76827951148152 1.2535256296396253 3.2212122753262511 1.897554814815521 3.8652894906699657
leaf_count=3024 29 8 26 15 35 9 78 25 19 14 4586 20 28 19 65
internal_value=0.000254072 0.0496873 -0.0518298 0.0529282 -0.0550169 0.0469931 0.0532996 -0.0554167 -0.0561333 -0.0607983 0.0534436 0.0556895 -0.0552268 -0.0562015 0.0534564
internal_weight=560.102 287.363 272.739 278.824 264.217 8.52135 277.666 260.705 8.53927 6.46481 276.03 6.38164 257.678 4.36984 5.11882
internal_count=8000 4768 3232 4687 3112 120 4679 3077 81 62 4664 94 3052 48 85
is_linear=0
shrinkage=0.05


Tree=38
num_leaves=15
num_cat=0
split_feature=0 3 1 0 3 1 3 3 1 0 1 0 0 2
split_gain=546.171 31.1004 16.3944 12.7564 6.36069 1.87865 4.2782 1.13775 2.45065 0.0975035 0.127206 0.0818562 0.0263528 0.00118177
threshold=0.52624611948550359 0.56287181145012533 0.2510994055003265 0.3403755892586548 0.19306777513955997 0.5541073815536367 0.36503795806332873 0.4209177566907723 0.6783769464718068 0.49902861953956218 0.62999418333019908 0.54955854450930908 0.49902861953956218 0.72345538439629375
decision_type=2 2 2 2 2 2 2 2 2 2 2 2 2 2
left_child=1 5 -2 -3 -4 12 -7 8 -6 10 -5 -9 13 -1
right_child=2 3 4 9 7 6 -8 11 -10 -11 -12 -13 -14 -15
leaf_value=-0.054833848546053755 -0.056871241573539372 -0.05389253465709587 -0.061048059944474112 0.0694830456003485 -0.0064944380039318158 -0.059109926020603699 0.030230548672298137 0.044915079547874159 0.057693206846978144 0.046280845687281094 0.054248036426945395 0.053210742633941072 -0.060191090973421492 -0.055954102126484662
leaf_weight=243.48998658359051 3.4987575784325591 3.7274969741702071 1.2368233874440182 1.8412711955606917 2.5225457400083533 3.6121400371193877 2.1302686668932438 3.0088259838521472 3.6224263869225979 2.2799271047115326 5.3546394854784012 254.33497881144285 2.3266599327325812 2.3771742060780516
leaf_count=3033 36 32 9 17 18 31 17 50 44 36 82 4547 23 25
internal_value=0.000254036 -0.0503505 0.0506539 0.0244672 0.052075 -0.0542406 -0.0259672 0.052606 0.0313438 0.0552914 0.0581463 0.0531138 -0.0548948 -0.0548447
internal_weight=535.364 267.14 268.224 13.2033 264.726 253.936 5.74241 263.489 6.14497 9.47584 7.19591 257.344 248.194 245.867
internal_count=8000 3296 4704 167 4668 3129 48 4659 62 135 99 4597 3081 3058
is_linear=0
shrinkage=0.05


Tree=39
num_leaves=16
num_cat=0
split_feature=1 0 0 3 2 3 0 0 2 1 1 0 1 3 2
split_gain=517.195 35.5337 30.8735 3.33571 1.26998 0.749025 0.399461 0.301254 0.248757 0.0997587 0.0676425 0.0415949 0.037277 0.00176989 2.98071e-05
threshold=0.50341760242383582 0.3403755892586548 0.63018693443196383 0.23957152587950378 0.72032820675578735 0.66291845540034477 0.38887365577661875 0.56061137349714307 0.42270491784366082 0.62604779108253428 0.53688536872694514 0.51391134020372176 0.34690999150147467 0.23033713562195227 0.59533382158331138
decision_type=2 2 2 2 2 2 2 2 2 2 2 2 2 2 2
left_child=2 8 4 -3 7 -4 -5 11 9 13 -8 -1 -7 -2 -14
right_child=1 3 5 6 -6 12 10 -9 -10 -11 -12 -13 14 -15 -16
leaf_value=-0.05461430538372547 -0.054654533146839004 -0.034371024536462812 0.020038848089819289 0.027626297024698807 -0.023825527754321098 0.062670775192645897 0.047306818398203748 -0.071170908405044725 -0.03941846211693955 -0.069502849144215423 0.053204855401399735 -0.060552418915215012 0.053283941347570689 -0.056743421754109159 0.053002220999671112
leaf_weight=232.4527930393815 2.2571084648370734 1.0988676398992527 2.040501754730939 1.5498463511466969 3.3375394865870467 1.3064519986510275 4.9589857608079901 2.805669665336608 1.9540572315454481 1.8803774863481519 246.55120389908552 2.9869517460465422 1.3279425799846647 1.8412524610757826 3.2049125023186207
leaf_count=3024 29 8 26 15 35 11 87 25 19 13 4577 28 23 20 60
internal_value=0.000253893 0.0493026 -0.0512779 0.0525552 -0.0544547 0.0461167 0.0529326 -0.0548837 -0.054906 -0.0599678 0.0530886 -0.0546896 0.0552295 -0.055593 0.0530848
internal_weight=511.554 262.092 249.463 254.159 241.583 7.87981 253.06 238.245 7.9328 5.97874 251.51 235.44 5.83931 4.09836 4.53286
internal_count=8000 4768 3232 4687 3112 120 4679 3077 81 62 4664 3052 94 49 83
is_linear=0
shrinkage=0.05


Tree=40
num_leaves=15
num_cat=0
split_feature=0 3 1 0 3 1 0 3 2 0 3 0 1 2
split_gain=489.719 28.2228 14.744 11.3666 5.37299 1.80218 3.36173 1.18836 2.3999 0.0984548 0.127086 0.0202759 0.0098399 0.00119547
threshold=0.52624611948550359 0.56287181145012533 0.26837751382573199 0.3403755892586548 0.19306777513955997 0.5541073815536367 0.30487899054687168 0.4209177566907723 0.58534027692461288 0.49902861953956218 0.66689724197712408 0.49902861953956218 0.38388370178406922 0.72345538439629375
decision_type=2 2 2 2 2 2 2 2 2 2 2 2 2 2
left_child=1 5 -2 -3 -4 11 -7 8 -6 10 -5 13 -9 -1
right_child=2 3 4 9 7 6 -8 12 -10 -11 -12 -13 -14 -15
leaf_value=-0.054334371722872879 -0.048245677102260132 -0.05192297759331721 -0.060510393383825967 0.069779436688320734 -0.0068567419709459733 -0.059428921935918491 0.02036091589411226 0.056291668458338995 0.058017711007764608 0.045381876570549054 0.053792975976031991 -0.059233528723259633 0.052832693479283627 -0.055497539077101005
leaf_weight=222.31883491575718 3.7389394715428343 3.4943883940577498 1.0600068494677533 1.6593508906662444 2.5113805495202532 3.0708745494484893 2.3154745809733868 2.0744603313505641 3.2971549592912197 2.1025039814412594 4.9567176289856434 2.1421637982130042 231.80661629885435 2.2311539798974982
leaf_count=3033 39 32 8 15 20 28 20 25 42 36 84 23 4570 25
internal_value=0.000253835 -0.0498143 0.0502816 0.0242694 0.0518118 -0.0537129 -0.025129 0.0523086 0.0299686 0.0548072 0.0578025 -0.0543921 0.0528634 -0.0543459
internal_weight=488.78 244.291 244.489 12.213 240.75 232.079 5.38635 239.69 5.80854 8.71857 6.61607 226.692 233.881 224.55
internal_count=8000 3296 4704 167 4665 3129 48 4657 62 135 99 3081 4595 3058
is_linear=0
shrinkage=0.05


Tree=41
num_leaves=16
num_cat=0
split_feature=1 0 0 3 2 0 0 0 2 0 1 1 0 3 2
split_gain=464.128 35.7081 25.1864 3.60146 0.913879 0.737598 0.531003 0.277384 0.27387 0.183889 0.0906031 0.0324912 0.0318799 0.00172786 9.91709e-06
threshold=0.49210352762243542 0.3403755892586548 0.64074818201742356 0.23957152587950378 0.76045138855436389 0.38887365577661875 0.7548741941643845 0.56061137349714307 0.48286356782282724 0.45256481619358963 0.64075987151940972 0.35361641209774236 0.51391134020372176 0.26410131245453566 0.6068135468420276
decision_type=2 2 2 2 2 2 2 2 2 2 2 2 2 2 2
left_child=2 8 4 -3 7 -5 -4 12 10 -7 13 -8 -1 -2 -13
right_child=1 3 6 5 -6 9 11 -9 -10 -11 -12 14 -14 -15 -16
leaf_value=-0.054146816612739013 -0.054227534093761076 -0.035524397079195816 0.023933014285793093 0.018898077179827291 -0.018377785531055527 0.06612982635134812 0.062335422848693013 -0.070314855656465822 -0.035978000122674679 0.052647059982291994 -0.068336820063601866 0.052942390712858514 -0.059667819710792526 -0.056251502072784149 0.052756453786641413
leaf_weight=212.21632651239634 3.2950163558125478 1.1662641763687123 1.9037320129573334 1.615955002605914 1.7735562659800042 2.5573669634759417 1.2274011820554731 2.7090030238032332 1.7309319227933881 227.51468831673265 1.6844415515661237 1.0475130565464499 2.6473124772310248 1.5507753565907476 2.2736521847546101
leaf_count=3022 46 9 27 17 21 35 11 26 18 4645 12 20 27 18 46
internal_value=0.000253819 0.0484951 -0.0512598 0.0521193 -0.0541239 0.0525605 0.0461045 -0.0544153 -0.0536606 0.0527969 -0.0583476 0.0553841 -0.0542148 -0.0548753 0.0528151
internal_weight=466.914 241.115 225.798 232.854 219.346 231.688 6.4523 217.573 8.26117 230.072 6.53023 4.54857 214.864 4.84579 3.32117
internal_count=8000 4800 3200 4706 3096 4697 104 3075 94 4680 76 77 3049 64 66
is_linear=0
shrinkage=0.05


Tree=42
num_leaves=16
num_cat=0
split_feature=1 0 0 3 2 3 3 2 0 0 1 0 1 3 2
split_gain=439.58 33.8276 23.8596 3.43142 0.940972 0.799945 0.547195 0.279534 0.26045 0.0844759 0.0785861 0.0277123 0.0275852 0.00148857 1.64971e-05
threshold=0.49210352762243542 0.3403755892586548 0.64074818201742356 0.23957152587950378 0.76045138855436389 0.36503795806332873 0.68726137346467697 0.48286356782282724 0.56061137349714307 0.45256481619358963 0.64075987151940972 0.51391134020372176 0.34690999150147467 0.26410131245453566 0.59533382158331138
decision_type=2 2 2 2 2 2 2 2 2 2 2 2 2 2 2
left_child=2 7 4 -3 8 -5 -4 10 11 -7 13 -1 -8 -2 -14
right_child=1 3 6 5 -6 9 12 -9 -10 -11 -12 -13 14 -15 -16
leaf_value=-0.053928938276216448 -0.054004535056715965 -0.034370321179016811 0.022662285152668826 0.026135813062042976 -0.017538063318737234 0.060330793747069116 0.061625535798412512 -0.035022476425192364 -0.069949285637503508 0.052602307022308087 -0.067403299130252878 -0.059186059820095831 0.052819531324515404 -0.055925752894932436 0.05257831718331555
leaf_weight=202.66135823726654 3.1469314545392981 1.1456860452890385 1.8566496185958374 2.8648585416376582 1.7657559812068928 3.5949871689081183 1.1711989678442476 1.6902961209416387 2.5900095105171195 214.64913169667125 1.6239176392555235 2.5381799452006808 1.0590033754706385 1.4835179075598715 2.1436665430665016
leaf_count=3022 46 9 26 26 21 48 11 18 26 4623 12 27 21 18 46
internal_value=0.000253548 0.048314 -0.0510171 0.0519378 -0.053884 0.052385 0.0454052 -0.0530634 -0.0541928 0.0527296 -0.0579392 -0.053994 0.0550593 -0.0546201 0.0526581
internal_weight=445.985 230.199 215.786 222.255 209.555 221.109 6.23052 7.94466 207.79 218.244 6.25437 205.2 4.37387 4.63045 3.20267
internal_count=8000 4800 3200 4706 3096 4697 104 94 3075 4671 76 3049 78 64 67
is_linear=0
shrinkage=0.05


Tree=43
num_leaves=15
num_cat=0
split_feature=0 3 3 0 1 1 0 3 1 0 3 0 0 2
split_gain=416.728 24.3053 12.6623 9.48848 4.52365 1.6701 3.02839 1.05737 1.77997 0.0916727 0.107538 0.0785313 0.0143534 0.00105616
threshold=0.52624611948550359 0.56287181145012533 0.23957152587950378 0.3403755892586548 0.2510994055003265 0.5541073815536367 0.31231924222851137 0.4209177566907723 0.6783769464718068 0.49902861953956218 0.64337259321545937 0.54955854450930908 0.49902861953956218 0.72345538439629375
decision_type=2 2 2 2 2 2 2 2 2 2 2 2 2 2
left_child=1 5 -2 -3 -4 12 -7 8 -6 10 -5 -9 13 -1
right_child=2 3 4 9 7 6 -8 11 -10 -11 -12 -13 -14 -15
leaf_value=-0.053688569612181491 -0.047927385805945813 -0.048981034242279828 -0.056743901243471895 0.069347618780843195 -0.0047303535182957289 -0.057926131631166944 0.021710306622440778 0.043462070121238525 0.055455434516372804 0.044291911264438745 0.053294704990623137 0.052477427518409017 -0.058060814700218399 -0.054840702631009354
leaf_weight=193.67309331521392 3.2644405812025061 3.1618747375905496 0.96412272751331229 1.3635633960366247 2.18734037131071 2.8152306079864493 2.0727201029658318 2.4449417665600768 2.8023365400731564 1.8529610671102998 4.4413489401340485 200.96746511012316 1.9056740961968888 2.0097789019346228
leaf_count=3033 37 32 10 13 17 29 19 50 43 36 86 4547 23 25
internal_value=0.000253332 -0.0491266 0.0497878 0.0238878 0.0513114 -0.0530282 -0.0241566 0.0518113 0.0290716 0.0539747 0.0570655 0.0523691 -0.0537425 -0.0537004
internal_weight=425.927 213.296 212.631 10.8197 209.366 202.476 4.88795 208.402 4.98968 7.65787 5.80491 203.412 197.589 195.683
internal_count=8000 3296 4704 167 4667 3129 48 4657 60 135 99 4597 3081 3058
is_linear=0
shrinkage=0.05


Tree=44
num_leaves=16
num_cat=0
split_feature=1 0 0 3 3 0 2 0 0 0 1 0 1 3 3
split_gain=394.979 30.3654 21.5024 3.22684 1.2603 0.410363 0.314356 0.179682 0.175302 0.125856 0.0613716 0.0233593 0.0223594 0.00112419 9.7272e-06
threshold=0.49210352762243542 0.3403755892586548 0.64711820967902789 0.30454978134024846 0.62832931959258687 0.7548741941643845 0.48499782894599275 0.38887365577661875 0.56061137349714307 0.4661406393428873 0.64075987151940972 0.51391134020372176 0.35361641209774236 0.2669657484788745 0.72595415613405623
decision_type=2 2 2 2 2 2 2 2 2 2 2 2 2 2 2
left_child=2 6 4 -3 8 -4 10 -5 11 -9 13 -1 -7 -2 -14
right_child=1 3 5 7 -6 12 -8 9 -10 -11 -12 -13 14 -15 -16
leaf_value=-0.053508985450215735 -0.053610867035927184 -0.00080965071292050993 0.024579005119602669 0.033262093442456751 -0.0040687991762366647 0.060791031055230531 -0.031729149582702024 0.062734307245428694 -0.066416972812955263 0.052341233619545735 -0.065867277845165786 -0.058521634085380948 0.052556364944463765 -0.055349303565997238 0.052359731298848328
leaf_weight=185.02989025041461 2.9365145601332179 2.8929419964551917 1.5724935792386521 1.2217112779617298 1.2849504202604283 1.1014918461441996 1.5286209285259245 2.9569859243929377 2.6943652480840674 195.35842797160149 1.5142220519483087 2.3537190593779078 0.92269728705287013 1.3609443418681619 1.9755533225834367
leaf_count=3029 47 19 24 15 14 11 17 46 29 4626 12 27 20 18 46
internal_value=0.000253164 0.0479958 -0.0506011 0.0516183 -0.0534204 0.0462192 -0.0519047 0.0523784 -0.053754 0.0524962 -0.0572113 -0.0535719 0.054727 -0.0541614 0.0524223
internal_weight=406.706 209.77 196.935 202.43 191.363 5.57224 7.3403 199.537 190.078 198.315 5.81168 187.384 3.99974 4.29746 2.89825
internal_count=8000 4800 3200 4706 3099 101 94 4687 3085 4672 77 3056 77 65 66
is_linear=0
shrinkage=0.05


Tree=45
num_leaves=15
num_cat=0
split_feature=0 3 3 0 1 1 3 3 2 0 3 0 0 1
split_gain=374.511 21.9341 11.4214 8.47762 4.04283 1.59027 3.20029 1.06623 1.67122 0.0901593 0.0883814 0.0825914 0.0111703 0.000813693
threshold=0.52624611948550359 0.56287181145012533 0.23957152587950378 0.3403755892586548 0.2510994055003265 0.5541073815536367 0.36503795806332873 0.4209177566907723 0.60920263544512865 0.49902861953956218 0.64337259321545937 0.54955854450930908 0.49902861953956218 0.52752296298793289
decision_type=2 2 2 2 2 2 2 2 2 2 2 2 2 2
left_child=1 5 -2 -3 -4 12 -7 8 -6 10 -5 -9 13 -1
right_child=2 3 4 9 7 6 -8 11 -10 -11 -12 -13 -14 -15
leaf_value=-0.053316778962457283 -0.046641140463916306 -0.047265197641309924 -0.055989604437952811 0.068112886555586324 -0.0034140504780108142 -0.056765165283897884 0.028863449114072931 0.042622563696181386 0.056113110745252694 0.043396013628453523 0.052984466249828277 0.052234544581142899 -0.057336619737639205 -0.054476252680349724
leaf_weight=176.79976278916001 3.0414152555167666 2.9801518879830819 0.87853184342384238 1.2681296877562998 2.2284349985420695 2.8161006867885581 1.7814245000481603 2.2625256292521945 2.5039069280028343 1.7100864201784132 4.0443007685244083 182.72321282327175 1.7538177631795395 1.5262003168463696
leaf_count=3036 37 32 10 13 20 31 17 50 40 36 86 4547 23 22
internal_value=0.000252966 -0.0487185 0.0494879 0.0233952 0.0510219 -0.0526244 -0.0235862 0.0515175 0.0280821 0.0533814 0.0565958 0.052117 -0.0533658 -0.0533267
internal_weight=388.318 194.68 193.638 10.0027 190.597 184.677 4.59753 189.718 4.73234 7.02252 5.31243 184.986 180.08 178.326
internal_count=8000 3296 4704 167 4667 3129 48 4657 60 135 99 4597 3081 3058
is_linear=0
shrinkage=0.05


Tree=46
num_leaves=16
num_cat=0
split_feature=1 0 0 3 2 3 3 2 0 1 1 0 1 3 2
split_gain=355.165 24.4546 21.4461 2.54909 1.30805 0.768958 0.488503 0.335506 0.244888 0.0464846 0.0272243 0.0204261 0.017461 0.000707216 9.17306e-06
threshold=0.50341760242383582 0.3403755892586548 0.63018693443196383 0.23957152587950378 0.72032820675578735 0.65572124678348953 0.30454978134024846 0.44126553526098583 0.56061137349714307 0.64075987151940972 0.51906867888651931 0.51391134020372176 0.34690999150147467 0.23033713562195227 0.59533382158331138
decision_type=2 2 2 2 2 2 2 2 2 2 2 2 2 2 2
left_child=2 7 4 -3 8 -4 -5 9 11 13 -8 -1 -7 -2 -14
right_child=1 3 5 6 -6 12 10 -9 -10 -11 -12 -13 14 -15 -16
leaf_value=-0.053174895419845394 -0.053231562503690558 -0.02830413657728292 0.013213985651444977 0.024646112506149877 -0.018660112564492817 0.059665209758684834 0.045890682603933308 -0.029776592170110333 -0.070232676909748826 -0.064764403131415182 0.052191781143294647 -0.057921327100867684 0.052303857131073397 -0.054738121105636507 0.052121965701237095
leaf_weight=168.26781012862921 1.8194561898708337 0.99646127969026466 1.5767358914017666 1.6312253177165974 2.7447674721479407 1.0066121257841585 1.7308058515191067 1.4680105820298193 2.1466274596750727 1.4168863520026205 178.81164143234491 2.2976358383893958 0.96594335138797793 1.362150367349386 2.4544472731649876
leaf_count=3024 32 8 23 9 35 11 43 17 25 12 4627 28 23 20 63
internal_value=0.000252758 0.048178 -0.0497262 0.051449 -0.0529058 0.0431977 0.0518853 -0.0505877 -0.05345 -0.0572313 0.0521314 -0.0532388 0.0538768 -0.0538766 0.0521733
internal_weight=370.697 189.237 181.461 183.17 175.457 6.00374 182.174 6.0665 172.712 4.59849 180.542 170.565 4.427 3.18161 3.42039
internal_count=8000 4768 3232 4687 3112 120 4679 81 3077 64 4670 3052 97 52 86
is_linear=0
shrinkage=0.05


Tree=47
num_leaves=16
num_cat=0
split_feature=1 0 0 3 3 3 2 3 0 0 0 1 1 3 3
split_gain=336.726 26.2092 18.4039 3.06181 1.67716 1.24715 0.485166 0.196536 0.151052 0.106245 0.0170766 0.0131642 0.0131263 0.00102663 1.98371e-05
threshold=0.49210352762243542 0.38887365577661875 0.64711820967902789 0.56287181145012533 0.23957152587950378 0.62832931959258687 0.53433140406698698 0.30454978134024846 0.56061137349714307 0.4661406393428873 0.51391134020372176 0.34690999150147467 0.64075987151940972 0.28473515077414208 0.70839352406469691
decision_type=2 2 2 2 2 2 2 2 2 2 2 2 2 2 2
left_child=2 3 5 12 -3 8 -4 -6 10 -9 -1 -8 13 -2 -13
right_child=1 4 6 -5 7 -7 11 9 -10 -11 -12 14 -14 -15 -16
leaf_value=-0.052993716737595654 -0.053264574914594055 -0.020107650489425841 0.018219226235669891 0.0218570099405105 0.033686157185532931 -0.0025454515826677485 0.058746498656385128 0.06213073661210014 -0.065670630626624468 0.052003696868658217 -0.057543254891194086 0.052304102812716628 -0.058961943957601917 -0.05479500101788165 0.052010070354498276
leaf_weight=160.83981517702341 3.3226082511246187 0.8100837916135778 1.2774302139878262 1.6118803098797796 1.4520589858293522 1.2223827578127373 1.0367108620703223 2.630159977823495 2.4066492430865756 169.25991351529956 2.0893578529357901 0.83816374838352237 1.613025017082691 1.6350179500877855 1.8174611330032346
leaf_count=3029 59 7 20 16 8 14 12 46 29 4626 27 20 15 23 49
internal_value=0.00025262 0.0475594 -0.0500347 -0.0398953 0.0516685 -0.0528637 0.0447793 0.0520039 -0.0532357 0.0521587 -0.0530521 0.0539682 -0.055044 -0.0537693 0.0521029
internal_weight=353.863 182.335 171.528 8.18253 174.152 166.558 4.96977 173.342 165.336 171.89 162.929 3.69234 6.57065 4.95763 2.65562
internal_count=8000 4800 3200 113 4687 3099 101 4680 3085 4672 3056 81 97 82 69
is_linear=0
shrinkage=0.05


Tree=48
num_leaves=15
num_cat=0
split_feature=0 3 1 0 3 1 3 3 0 2 3 0 1 1
split_gain=319.373 18.8716 9.82244 7.49561 3.9285 1.45604 2.73136 1.17858 2.89135 0.904406 0.190369 0.00765737 0.003724 0.000689416
threshold=0.52624611948550359 0.56287181145012533 0.26837751382573199 0.24420948339338813 0.19306777513955997 0.5541073815536367 0.36503795806332873 0.4209177566907723 0.72103608108101891 0.53921442644127215 0.63815521748806669 0.49902861953956218 0.40709346762779092 0.52752296298793289
decision_type=2 2 2 2 2 2 2 2 2 2 2 2 2 2
left_child=1 5 -2 -3 -4 11 -7 8 -6 -5 -11 13 -9 -1
right_child=2 3 4 9 7 6 -8 12 -10 10 -12 -13 -14 -15
leaf_value=-0.052830450582856986 -0.045213841303219413 -0.05960257897054573 -0.058320921694608542 0.011113784360428303 -0.021373389685844908 -0.055856473138744561 0.027166631215767907 0.054156041080130272 0.058609949278611032 0.075613755704660723 0.05250901213765799 -0.056375724329980906 0.051867144317937645 -0.053964228342375853
leaf_weight=153.60270871222019 2.7175260931253424 2.1103624887764436 0.82337504997849364 1.3185170516371725 1.8879621699452389 2.489193018525838 1.6455487869679926 1.7972364835441101 2.8140426315367222 1.121430482715368 4.3486602157354355 1.5468996688723553 158.1267845518887 1.3526117838919152
leaf_count=3036 39 27 8 21 18 31 17 32 44 11 108 23 4563 22
internal_value=0.000252236 -0.0481752 0.0490739 0.0227004 0.0506226 -0.0521015 -0.0228149 0.0511675 0.0264948 0.0482858 0.0572457 -0.0528753 0.0518929 -0.0528403
internal_weight=337.703 169.536 168.167 8.89897 165.449 160.637 4.13474 164.626 4.702 6.78861 5.47009 156.502 159.924 154.955
internal_count=8000 3296 4704 167 4665 3129 48 4657 62 140 119 3081 4595 3058
is_linear=0
shrinkage=0.05


Tree=49
num_leaves=16
num_cat=0
split_feature=1 0 0 3 3 2 3 3 0 0 0 1 1 3 2
split_gain=302.909 23.8027 16.6522 2.77923 1.53713 0.947995 0.673298 0.222584 0.210788 0.0797485 0.0131364 0.0128265 0.0106393 0.00087093 7.42671e-06
threshold=0.49210352762243542 0.38887365577661875 0.64074818201742356 0.56287181145012533 0.23957152587950378 0.76045138855436389 0.64337259321545937 0.30454978134024846 0.56061137349714307 0.47715406841047142 0.51391134020372176 0.36383015294264626 0.64075987151940972 0.29035766381054212 0.59533382158331138
decision_type=2 2 2 2 2 2 2 2 2 2 2 2 2 2 2
left_child=2 3 5 12 -3 8 -4 -6 10 -9 -1 -8 13 -2 -13
right_child=1 4 6 -5 7 -7 11 9 -10 -11 -12 14 -14 -15 -16
leaf_value=-0.052717053269083249 -0.052948592825460217 -0.018817150114985755 0.011206872627036511 0.020236857435270594 0.032036645374161274 -0.012516690933249997 0.058738060602319724 0.059948662052341388 -0.069192314940792921 0.051798423506197358 -0.056872609136086529 0.052019198410566431 -0.058289677410254426 -0.054435420837352103 0.051836463187894623
leaf_weight=146.15322981774807 3.0862464047968379 0.77484137192368407 1.2695656567811955 1.5607279464602468 1.4148313924670208 1.4610428921878327 0.93561805412173304 3.0613836739212266 1.9803709760308255 153.14161754958332 1.9268411844968785 0.81800720095634494 1.4929596222937105 1.4465692266821859 1.736089553683996
leaf_count=3022 60 7 19 16 8 21 12 59 26 4613 27 22 15 22 51
internal_value=0.000252072 0.0472901 -0.049705 -0.0392272 0.051434 -0.0525976 0.0423865 0.0517793 -0.0529878 0.0519582 -0.0527711 0.0537297 -0.0546288 -0.0534231 0.051895
internal_weight=322.26 165.979 156.281 7.5865 158.393 151.521 4.75928 157.618 150.06 156.203 148.08 3.48971 6.02578 4.53282 2.5541
internal_count=8000 4800 3200 113 4687 3096 104 4680 3075 4672 3049 85 97 82 73
is_linear=0
shrinkage=0.05


end of trees

feature_importances:
consensus_score=237
reputation_score=230
physical_score=193
temporal_score=77

parameters:
[boosting: gbdt]
[objective: binary]
[metric: binary_logloss]
[tree_learner: serial]
[device_type: cpu]
[data_sample_strategy: bagging]
[data: ]
[valid: ]
[num_iterations: 50]
[learning_rate: 0.05]
[num_leaves: 31]
[num_threads: 10]
[seed: 42]
[deterministic: 0]
[force_col_wise: 0]
[force_row_wise: 0]
[histogram_pool_size: -1]
[max_depth: 5]
[min_data_in_leaf: 20]
[min_sum_hessian_in_leaf: 0.001]
[bagging_fraction: 1]
[pos_bagging_fraction: 1]
[neg_bagging_fraction: 1]
[bagging_freq: 0]
[bagging_seed: 400]
[bagging_by_query: 0]
[feature_fraction: 1]
[feature_fraction_bynode: 1]
[feature_fraction_seed: 30056]
[extra_trees: 0]
[extra_seed: 12879]
[early_stopping_round: 0]
[early_stopping_min_delta: 0]
[first_metric_only: 0]
[max_delta_step: 0]
[lambda_l1: 0]
[lambda_l2: 0]
[linear_lambda: 0]
[min_gain_to_split: 0]
[drop_rate: 0.1]
[max_drop: 50]
[skip_drop: 0.5]
[xgboost_dart_mode: 0]
[uniform_drop: 0]
[drop_seed: 17869]
[top_rate: 0.2]
[other_rate: 0.1]
[min_data_per_group: 100]
[max_cat_threshold: 32]
[cat_l2: 10]
[cat_smooth: 10]
[max_cat_to_onehot: 4]
[top_k: 20]
[monotone_constraints: ]
[monotone_constraints_method: basic]
[monotone_penalty: 0]
[feature_contri: ]
[forcedsplits_filename: ]
[refit_decay_rate: 0.9]
[cegb_tradeoff: 1]
[cegb_penalty_split: 0]
[cegb_penalty_feature_lazy: ]
[cegb_penalty_feature_coupled: ]
[path_smooth: 0]
[interaction_constraints: ]
[verbosity: -1]
[saved_feature_importance_type: 0]
[use_quantized_grad: 0]
[num_grad_quant_bins: 4]
[quant_train_renew_leaf: 0]
[stochastic_rounding: 1]
[linear_tree: 0]
[max_bin: 255]
[max_bin_by_feature: ]
[min_data_in_bin: 3]
[bin_construct_sample_cnt: 200000]
[data_random_seed: 175]
[is_enable_sparse: 1]
[enable_bundle: 1]
[use_missing: 1]
[zero_as_missing: 0]
[feature_pre_filter: 1]
[pre_partition: 0]
[two_round: 0]
[header: 0]
[label_column: ]
[weight_column: ]
[group_column: ]
[ignore_column: ]
[categorical_feature: ]
[forcedbins_filename: ]
[precise_float_parser: 0]
[parser_config_file: ]
[objective_seed: 16083]
[num_class: 1]
[is_unbalance: 0]
[scale_pos_weight: 1]
[sigmoid: 1]
[boost_from_average: 1]
[reg_sqrt: 0]
[alpha: 0.9]
[fair_c: 1]
[poisson_max_delta_step: 0.7]
[tweedie_variance_power: 1.5]
[lambdarank_truncation_level: 30]
[lambdarank_norm: 1]
[label_gain: ]
[lambdarank_position_bias_regularization: 0]
[eval_at: ]
[multi_error_top_k: 1]
[auc_mu_weights: ]
[num_machines: 1]
[local_listen_port: 12400]
[time_out: 120]
[machine_list_filename: ]
[machines: ]
[gpu_platform_id: -1]
[gpu_device_id: -1]
[gpu_use_dp: 0]
[num_gpu: 1]

end of parameters

pandas_categorical:[]
